{"learner":{"attributes":{"scikit_learn":"{\"_estimator_type\": \"classifier\"}"},"feature_names":[],"feature_types":[],"gradient_booster":{"model":{"cats":{"enc":[],"feature_segments":[],"sorted_idx":[]},"gbtree_model_param":{"num_parallel_tree":"1","num_trees":"200"},"iteration_indptr":[0,1,2,3,4,5,6,7,8,9,10,11,12,13,14,15,16,17,18,19,20,21,22,23,24,25,26,27,28,29,30,31,32,33,34,35,36,37,38,39,40,41,42,43,44,45,46,47,48,49,50,51,52,53,54,55,56,57,58,59,60,61,62,63,64,65,66,67,68,69,70,71,72,73,74,75,76,77,78,79,80,81,82,83,84,85,86,87,88,89,90,91,92,93,94,95,96,97,98,99,100,101,102,103,104,105,106,107,108,109,110,111,112,113,114,115,116,117,118,119,120,121,122,123,124,125,126,127,128,129,130,131,132,133,134,135,136,137,138,139,140,141,142,143,144,145,146,147,148,149,150,151,152,153,154,155,156,157,158,159,160,161,162,163,164,165,166,167,168,169,170,171,172,173,174,175,176,177,178,179,180,181,182,183,184,185,186,187,188,189,190,191,192,193,194,195,196,197,198,199,200],"tree_info":[0,0,0,0,0,0,0,0,0,0,0,0,0,0,0,0,0,0,0,0,0,0,0,0,0,0,0,0,0,0,0,0,0,0,0,0,0,0,0,0,0,0,0,0,0,0,0,0,0,0,0,0,0,0,0,0,0,0,0,0,0,0,0,0,0,0,0,0,0,0,0,0,0,0,0,0,0,0,0,0,0,0,0,0,0,0,0,0,0,0,0,0,0,0,0,0,0,0,0,0,0,0,0,0,0,0,0,0,0,0,0,0,0,0,0,0,0,0,0,0,0,0,0,0,0,0,0,0,0,0,0,0,0,0,0,0,0,0,0,0,0,0,0,0,0,0,0,0,0,0,0,0,0,0,0,0,0,0,0,0,0,0,0,0,0,0,0,0,0,0,0,0,0,0,0,0,0,0,0,0,0,0,0,0,0,0,0,0,0,0,0,0,0,0,0,0,0,0,0,0],"trees":[{"base_weights":[2.7429773E-2,-1.5215659E0,1.4997337E0,-8.8660665E-2,-1.8762451E-1,9.503691E-1,1.8795167E-1,-1.4126685E-1,6.1752284E-1,-9.997088E-2,1.160228E0,1.1868335E0,-3.6500108E-1,-8.09479E-2,3.4091473E-1,1.358585E0,-1.2249053E-2,1.3874704E-1,2.1348067E-2,-8.09479E-2,1.718035E-2,9.895422E-2,-6.754389E-2,1.4656757E0,-9.449166E-4,-9.191486E-2,8.991049E-2,8.014422E-2,1.6892192E-1],"categories":[],"categories_nodes":[],"categories_segments":[],"categories_sizes":[],"default_left":[0,0,0,0,0,0,0,0,0,0,0,0,0,0,0,0,0,0,0,0,0,0,0,0,0,0,0,0,0],"id":0,"left_children":[1,3,5,7,-1,9,-1,-1,11,13,15,17,19,-1,21,23,25,-1,-1,-1,-1,-1,-1,27,-1,-1,-1,-1,-1],"loss_changes":[2.936097E2,3.1722595E1,1.19831085E1,1.3494029E1,0E0,6.507883E0,0E0,0E0,5.746833E0,2.0745394E0,5.656105E0,9.2430496E-1,1.1530635E0,0E0,3.4699905E0,3.0536232E0,4.5455112E0,0E0,0E0,0E0,0E0,0E0,0E0,1.5043564E0,0E0,0E0,0E0,0E0,0E0],"parents":[2147483647,0,0,1,1,2,2,3,3,5,5,8,8,9,9,10,10,11,11,12,12,14,14,15,15,16,16,23,23],"right_children":[2,4,6,8,-1,10,-1,-1,12,14,16,18,20,-1,22,24,26,-1,-1,-1,-1,-1,-1,28,-1,-1,-1,-1,-1],"split_conditions":[1.4917543E-3,1.3592497E-2,6.911317E-2,-5.6196827E-2,-1.8762451E-1,-6.829642E-2,1.8795167E-1,-1.4126685E-1,8.069243E1,2.8422085E3,-7.696227E-3,-1.5364258E-2,7.7657265E1,-8.09479E-2,4.219092E3,2.5983804E3,2.3559231E-2,1.3874704E-1,2.1348067E-2,-8.09479E-2,1.718035E-2,9.895422E-2,-6.754389E-2,1.1587147E3,-9.449166E-4,-9.191486E-2,8.991049E-2,8.014422E-2,1.6892192E-1],"split_indices":[1,10,1,1,0,4,0,0,8,9,10,1,7,0,3,3,1,0,0,0,0,0,0,2,0,0,0,0,0],"split_type":[0,0,0,0,0,0,0,0,0,0,0,0,0,0,0,0,0,0,0,0,0,0,0,0,0,0,0,0,0],"sum_hessian":[1.2674214E2,6.1746174E1,6.499597E1,1.2499226E1,4.924695E1,2.7998264E1,3.6997707E1,3.999752E0,8.499474E0,4.7497053E0,2.3248558E1,5.249675E0,3.2497985E0,1.499907E0,3.2497985E0,1.9748775E1,3.499783E0,3.999752E0,1.2499225E0,1.499907E0,1.7498915E0,1.999876E0,1.2499225E0,1.8248869E1,1.499907E0,1.7498915E0,1.7498915E0,5.7496433E0,1.2499226E1],"tree_param":{"num_deleted":"0","num_feature":"20","num_nodes":"29","size_leaf_vector":"1"}},{"base_weights":[6.807385E-2,-1.3462377E0,1.3752434E0,1.04598686E-1,-1.6630638E0,8.687927E-1,1.714939E-1,9.4376856E-1,-9.333694E-1,-1.7515604E-1,-9.812876E-1,3.2301334E-1,1.2833036E0,1.4055131E-1,-6.539267E-2,-1.4010589E-1,-1.4211372E-2,3.187762E-2,-1.2693E0,-3.842964E-2,1.365993E-1,1.4167864E0,1.4068416E-2,-1.505133E-1,-1.2749033E-2,3.3833158E-1,-1.2905172E-1,3.0740166E-2,1.5252768E-1,-2.1533137E-2,9.081172E-2],"categories":[],"categories_nodes":[],"categories_segments":[],"categories_sizes":[],"default_left":[0,0,0,0,0,0,0,0,0,0,0,0,0,0,0,0,0,0,0,0,0,0,0,0,0,0,0,0,0,0,0],"id":1,"left_children":[1,3,5,7,9,11,-1,13,15,-1,17,19,21,-1,-1,-1,-1,-1,23,25,-1,27,-1,-1,-1,29,-1,-1,-1,-1,-1],"loss_changes":[2.3125397E2,2.780223E1,9.689171E0,1.1083985E1,1.261261E0,5.945694E0,0E0,6.064316E0,1.9248242E0,0E0,3.380836E0,5.131035E0,2.186407E0,0E0,0E0,0E0,0E0,0E0,1.6143484E0,5.615019E0,0E0,1.2035694E0,0E0,0E0,0E0,3.1074717E0,0E0,0E0,0E0,0E0,0E0],"parents":[2147483647,0,0,1,1,2,2,3,3,4,4,5,5,7,7,8,8,10,10,11,11,12,12,18,18,19,19,21,21,25,25],"right_children":[2,4,6,8,10,12,-1,14,16,-1,18,20,22,-1,-1,-1,-1,-1,24,26,-1,28,-1,-1,-1,30,-1,-1,-1,-1,-1],"split_conditions":[1.4917543E-3,1.3592497E-2,6.911317E-2,4.0385068E3,1.2E1,8.992867E-2,1.714939E-1,1.6E2,6.9162705E3,-1.7515604E-1,7.604294E1,4.1E2,1.0603148E4,1.4055131E-1,-6.539267E-2,-1.4010589E-1,-1.4211372E-2,3.187762E-2,5.029237E-1,3.67E2,1.365993E-1,2.4501536E3,1.4068416E-2,-1.505133E-1,-1.2749033E-2,7.818344E1,-1.2905172E-1,3.0740166E-2,1.5252768E-1,-2.1533137E-2,9.081172E-2],"split_indices":[1,10,1,9,5,4,0,19,9,0,8,16,9,0,0,0,0,0,15,16,0,9,0,0,0,8,0,0,0,0,0],"split_type":[0,0,0,0,0,0,0,0,0,0,0,0,0,0,0,0,0,0,0,0,0,0,0,0,0,0,0,0,0,0,0],"sum_hessian":[1.23085556E2,5.9105545E1,6.398001E1,1.0713814E1,4.839173E1,2.7113764E1,3.6866245E1,5.9744124E0,4.739402E0,4.1443176E1,6.9485564E0,1.2471725E1,1.4642039E1,4.7282143E0,1.2461984E0,2.4943702E0,2.2450314E0,1.2408136E0,5.7077427E0,9.977272E0,2.494454E0,1.2895606E1,1.746433E0,4.466929E0,1.2408136E0,8.230459E0,1.7468126E0,1.4902521E0,1.1405354E1,4.489793E0,3.7406662E0],"tree_param":{"num_deleted":"0","num_feature":"20","num_nodes":"31","size_leaf_vector":"1"}},{"base_weights":[-4.1830707E-2,1.1793363E0,-1.4441065E0,1.5982081E-1,7.43298E-1,-3.9881253E-1,-1.5025505E0,8.7532896E-1,-9.442379E-2,5.3040117E-2,-9.1908485E-2,-1.5580437E0,-4.5471045E-1,9.752296E-1,-9.289316E-2,-1.6157293E-1,-8.694857E-1,-1.0258012E-1,2.3305895E-2,2.2268863E-2,1.0807908E0,-8.2896225E-2,6.895761E-2,-1.2790635E-1,-1.3265596E-1,-5.2562803E-2,6.820669E-2,1.5933124E-2,1.1679297E-1,3.6901776E-2,-5.6739815E-2],"categories":[],"categories_nodes":[],"categories_segments":[],"categories_sizes":[],"default_left":[0,0,0,0,0,0,0,0,0,0,0,0,0,0,0,0,0,0,0,0,0,0,0,0,0,0,0,0,0,0,0],"id":2,"left_children":[1,3,5,-1,7,9,11,13,-1,-1,-1,15,17,19,21,-1,23,-1,-1,25,27,-1,-1,29,-1,-1,-1,-1,-1,-1,-1],"loss_changes":[2.1411172E2,1.1022232E1,2.9555511E0,0E0,8.541077E0,2.635162E0,2.4748993E0,3.246851E0,0E0,0E0,0E0,6.4391327E-1,1.875237E0,2.9601994E0,2.8552659E0,0E0,1.9157095E0,0E0,0E0,1.7970994E0,1.9567013E0,0E0,0E0,9.6343917E-1,0E0,0E0,0E0,0E0,0E0,0E0,0E0],"parents":[2147483647,0,0,1,1,2,2,4,4,5,5,6,6,7,7,11,11,12,12,13,13,14,14,16,16,19,19,20,20,23,23],"right_children":[2,4,6,-1,8,10,12,14,-1,-1,-1,16,18,20,22,-1,24,-1,-1,26,28,-1,-1,30,-1,-1,-1,-1,-1,-1,-1],"split_conditions":[1.3477094E-3,-2.4635924E-1,1.6408142E-2,1.5982081E-1,6.351483E3,7.749592E1,5.8153594E-1,3.92E2,-9.442379E-2,5.3040117E-2,-9.1908485E-2,1.1619391E-2,1.48E2,-4.0682203E-1,1.1880102E5,-1.6157293E-1,2.2473703E-1,-1.0258012E-1,2.3305895E-2,5.030389E-1,-9.060515E-2,-8.2896225E-2,6.895761E-2,7.730402E1,-1.3265596E-1,-5.2562803E-2,6.820669E-2,1.5933124E-2,1.1679297E-1,3.6901776E-2,-5.6739815E-2],"split_indices":[10,10,10,0,3,8,15,17,0,0,0,4,18,4,14,0,4,0,0,15,10,0,0,8,0,0,0,0,0,0,0],"split_type":[0,0,0,0,0,0,0,0,0,0,0,0,0,0,0,0,0,0,0,0,0,0,0,0,0,0,0,0,0,0,0],"sum_hessian":[1.2304054E2,6.585229E1,5.7188255E1,3.2227898E1,3.3624393E1,3.4424543E0,5.37458E1,3.1630924E1,1.9934715E0,1.228632E0,2.2138224E0,5.0580185E1,3.165615E0,2.8665949E1,2.964975E0,4.5427822E1,5.152364E0,1.4609896E0,1.7046256E0,2.979477E0,2.5686472E1,1.4971693E0,1.4678059E0,2.4527454E0,2.699618E0,1.7388687E0,1.2406082E0,2.4635775E0,2.3222895E1,1.2264161E0,1.2263293E0],"tree_param":{"num_deleted":"0","num_feature":"20","num_nodes":"31","size_leaf_vector":"1"}},{"base_weights":[-5.3487007E-2,-1.1398569E0,1.249952E0,-2.2439782E-1,-1.4150149E0,7.539918E-1,1.549732E-1,-1.3771977E-1,1.4429823E-1,-1.5412377E-1,-1.0310984E0,-3.8442552E-2,8.7793094E-1,9.1463155E-1,-1.9838104E-1,-1.402569E-1,-6.364226E-1,1.1169908E0,2.3660576E-1,4.196727E-3,1.2334003E-1,8.478289E-2,-5.4477304E-1,-3.7980914E-2,-9.1809326E-1,1.2194989E-1,3.4745697E-2,8.040659E-1,-4.179401E-1,4.6964202E-2,-7.813826E-2,-8.97099E-2,6.2178105E-2,-1.1052662E-1,-1.5458253E-2,-1.3060075E-3,1.1409327E-1,2.196838E-2,-8.813454E-2],"categories":[],"categories_nodes":[],"categories_segments":[],"categories_sizes":[],"default_left":[0,0,0,0,0,0,0,0,0,0,0,0,0,0,0,0,0,0,0,0,0,0,0,0,0,0,0,0,0,0,0,0,0,0,0,0,0,0,0],"id":3,"left_children":[1,3,5,7,9,11,-1,-1,13,-1,15,-1,17,19,21,-1,23,25,27,-1,-1,-1,29,31,33,-1,-1,35,37,-1,-1,-1,-1,-1,-1,-1,-1,-1,-1],"loss_changes":[1.76804E2,1.6830254E1,7.273369E0,7.3906784E0,9.381561E-1,3.630353E0,0E0,0E0,3.8047278E0,0E0,1.4422302E0,0E0,3.0091667E0,1.1733835E0,4.2023935E0,0E0,1.5752964E0,7.819843E-1,2.9607317E0,0E0,0E0,0E0,2.3742628E0,2.8818839E0,7.5119495E-1,0E0,0E0,1.1509168E0,1.3576297E0,0E0,0E0,0E0,0E0,0E0,0E0,0E0,0E0,0E0,0E0],"parents":[2147483647,0,0,1,1,2,2,3,3,4,4,5,5,8,8,10,10,12,12,13,13,14,14,16,16,17,17,18,18,22,22,23,23,24,24,27,27,28,28],"right_children":[2,4,6,8,10,12,-1,-1,14,-1,16,-1,18,20,22,-1,24,26,28,-1,-1,-1,30,32,34,-1,-1,36,38,-1,-1,-1,-1,-1,-1,-1,-1,-1,-1],"split_conditions":[1.4451156E-2,1.6408142E-2,6.911317E-2,-5.6196827E-2,7.3563766E-1,1.79E2,1.549732E-1,-1.3771977E-1,-3.2165874E-2,-1.5412377E-1,4.343531E-2,-3.8442552E-2,1.7E2,-2.3477247E-2,-1.1261718E-1,-1.402569E-1,8.6E1,1.1052094E5,1.298096E3,4.196727E-3,1.2334003E-1,8.478289E-2,1.8E2,1.79E2,1.55E2,1.2194989E-1,3.4745697E-2,2.9051244E-2,-3.8635243E-2,4.6964202E-2,-7.813826E-2,-8.97099E-2,6.2178105E-2,-1.1052662E-1,-1.5458253E-2,-1.3060075E-3,1.1409327E-1,2.196838E-2,-8.813454E-2],"split_indices":[1,10,1,1,12,17,0,0,1,0,10,0,19,10,10,0,19,13,3,0,0,0,17,17,19,0,0,1,10,0,0,0,0,0,0,0,0,0,0],"split_type":[0,0,0,0,0,0,0,0,0,0,0,0,0,0,0,0,0,0,0,0,0,0,0,0,0,0,0,0,0,0,0,0,0,0,0,0,0,0,0],"sum_hessian":[1.22853905E2,6.707488E1,5.5779022E1,1.5920936E1,5.1153946E1,2.2337948E1,3.3441074E1,3.195201E0,1.2725735E1,3.6228374E1,1.49255705E1,1.9868077E0,2.035114E1,3.4041784E0,9.321557E0,6.373284E0,8.552286E0,1.4284695E1,6.066445E0,1.2135653E0,2.190613E0,1.9585469E0,7.36301E0,3.1002636E0,5.4520226E0,1.2089546E1,2.1951485E0,3.1270275E0,2.9394174E0,1.2063121E0,6.1566978E0,1.1904159E0,1.9098477E0,4.019131E0,1.4328914E0,1.1934202E0,1.9336072E0,1.4585108E0,1.4809065E0],"tree_param":{"num_deleted":"0","num_feature":"20","num_nodes":"39","size_leaf_vector":"1"}},{"base_weights":[4.2216204E-2,-1.001926E0,1.2222841E0,-2.418317E-2,-1.3100705E0,3.8354272E-1,1.3188946E0,-1.3202094E-1,3.8618377E-1,-1.4528129E-1,-9.3090296E-1,-3.572173E-2,7.7425694E-1,5.5278605E-1,1.3661979E-1,9.2148554E-1,-1.271544E-1,-1.7119047E-1,-1.130461E0,1.13880254E-1,1.1539015E-2,9.6035115E-2,-3.2042768E-2,1.20739214E-1,-4.19562E-3,-4.789254E-1,9.456678E-2,-7.569604E-2,6.434638E-2,-4.421349E-2,-1.22684635E-1,4.2685255E-2,-1.14385046E-1],"categories":[],"categories_nodes":[],"categories_segments":[],"categories_sizes":[],"default_left":[0,0,0,0,0,0,0,0,0,0,0,0,0,0,0,0,0,0,0,0,0,0,0,0,0,0,0,0,0,0,0,0,0],"id":4,"left_children":[1,3,5,7,9,11,13,-1,15,-1,17,-1,19,21,-1,23,25,27,29,-1,-1,-1,-1,-1,-1,31,-1,-1,-1,-1,-1,-1,-1],"loss_changes":[1.4836319E2,1.9222313E1,4.073166E0,9.196474E0,1.2765121E0,2.3739805E0,1.0662766E0,0E0,3.7385764E0,0E0,2.242548E0,0E0,1.083957E0,1.9457353E0,0E0,1.8611164E0,3.3233695E0,2.644583E0,2.9000664E-1,0E0,0E0,0E0,0E0,0E0,0E0,4.3378706E0,0E0,0E0,0E0,0E0,0E0,0E0,0E0],"parents":[2147483647,0,0,1,1,2,2,3,3,4,4,5,5,6,6,8,8,10,10,12,12,13,13,15,15,16,16,17,17,18,18,25,25],"right_children":[2,4,6,8,10,12,14,-1,16,-1,18,-1,20,22,-1,24,26,28,30,-1,-1,-1,-1,-1,-1,32,-1,-1,-1,-1,-1,-1,-1],"split_conditions":[1.618611E-2,1.6408142E-2,2.8176524E-2,-5.6196827E-2,7.3563766E-1,8.271768E2,-6.829642E-2,-1.3202094E-1,-1.9979136E-2,-1.4528129E-1,7.597796E1,-3.572173E-2,2.1385143E-2,-3.5074967E-1,1.3661979E-1,1.1619391E-2,4.39E2,6.9135495E-2,6.8E1,1.13880254E-1,1.1539015E-2,9.6035115E-2,-3.2042768E-2,1.20739214E-1,-4.19562E-3,2.76E2,9.456678E-2,-7.569604E-2,6.434638E-2,-4.421349E-2,-1.22684635E-1,4.2685255E-2,-1.14385046E-1],"split_indices":[1,10,1,1,12,3,4,0,1,0,8,0,1,4,0,4,16,10,19,0,0,0,0,0,0,16,0,0,0,0,0,0,0],"split_type":[0,0,0,0,0,0,0,0,0,0,0,0,0,0,0,0,0,0,0,0,0,0,0,0,0,0,0,0,0,0,0,0,0],"sum_hessian":[1.18415276E2,6.290602E1,5.5509254E1,1.5332971E1,4.757305E1,6.246778E0,4.9262478E1,3.154198E0,1.2178773E1,3.2504677E1,1.5068372E1,2.1867063E0,4.0600715E0,3.6025617E0,4.5659916E1,5.5726295E0,6.606144E0,3.5211785E0,1.1547194E1,2.1448936E0,1.9151781E0,2.3881319E0,1.2144296E0,4.1021013E0,1.4705281E0,5.391795E0,1.2143489E0,2.089536E0,1.4316425E0,2.1045966E0,9.442596E0,2.434077E0,2.957718E0],"tree_param":{"num_deleted":"0","num_feature":"20","num_nodes":"33","size_leaf_vector":"1"}},{"base_weights":[-2.7081167E-2,-1.0306985E0,1.0173459E0,-1.2640669E0,-4.6024147E-1,5.975545E-1,1.3386105E-1,-7.5344247E-1,-1.3656978E-1,2.0383406E-1,-8.3403474E-1,1.1988179E-2,8.237795E-1,-9.739347E-1,1.726394E-2,-7.7478684E-2,6.0002494E-1,2.4914892E-2,-1.0806038E0,-1.0218463E0,6.05281E-1,9.176047E-1,-3.0739034E-2,-3.2775033E-2,-1.1246099E-1,8.1683576E-1,-1.5123664E-2,-1.4419751E-2,-1.1868253E0,-3.3792373E-2,-1.2475405E-1,1.314463E-1,-9.547178E-2,1.0115066E0,5.1168556E-4,1.20860785E-2,1.1490619E-1,-3.4161586E-2,-1.2961824E-1,1.3579117E-1,6.921749E-2],"categories":[],"categories_nodes":[],"categories_segments":[],"categories_sizes":[],"default_left":[0,0,0,0,0,0,0,0,0,0,0,0,0,0,0,0,0,0,0,0,0,0,0,0,0,0,0,0,0,0,0,0,0,0,0,0,0,0,0,0,0],"id":5,"left_children":[1,3,5,7,9,11,-1,13,-1,15,17,19,21,23,-1,-1,25,-1,27,29,31,33,-1,-1,-1,35,-1,-1,37,-1,-1,-1,-1,39,-1,-1,-1,-1,-1,-1,-1],"loss_changes":[1.2276579E2,7.3676834E0,6.9421463E0,1.1404877E0,4.8636565E0,3.5261717E0,0E0,2.0405874E0,0E0,3.4168673E0,3.55299E0,5.803584E0,2.3240194E0,3.671975E-1,0E0,0E0,1.0980773E0,0E0,8.436785E-1,1.11631155E-1,7.8919134E0,1.5386086E0,0E0,0E0,0E0,9.7083783E-1,0E0,0E0,3.9136982E-1,0E0,0E0,0E0,0E0,8.6658096E-1,0E0,0E0,0E0,0E0,0E0,0E0,0E0],"parents":[2147483647,0,0,1,1,2,2,3,3,4,4,5,5,7,7,9,9,10,10,11,11,12,12,13,13,16,16,18,18,19,19,20,20,21,21,25,25,28,28,33,33],"right_children":[2,4,6,8,10,12,-1,14,-1,16,18,20,22,24,-1,-1,26,-1,28,30,32,34,-1,-1,-1,36,-1,-1,38,-1,-1,-1,-1,40,-1,-1,-1,-1,-1,-1,-1],"split_conditions":[1.4917543E-3,-4.6861358E-2,6.86502E-2,3E0,2.09E2,2.14E2,1.3386105E-1,3.4E1,-1.3656978E-1,2.6234828E4,4.8146045E-1,7.736883E1,9.5252705E3,7.730402E1,1.726394E-2,-7.7478684E-2,2.705837E3,2.4914892E-2,5.566729E4,1.74E2,4.4579457E-2,1.87E2,-3.0739034E-2,-3.2775033E-2,-1.1246099E-1,1.1E1,-1.5123664E-2,-1.4419751E-2,4.9424815E-1,-3.3792373E-2,-1.2475405E-1,1.314463E-1,-9.547178E-2,6.756192E4,5.1168556E-4,1.20860785E-2,1.1490619E-1,-3.4161586E-2,-1.2961824E-1,1.3579117E-1,6.921749E-2],"split_indices":[1,1,1,0,17,17,0,6,0,14,15,8,2,8,0,0,3,0,13,17,1,18,0,0,0,6,0,0,15,0,0,0,0,14,0,0,0,0,0,0,0],"split_type":[0,0,0,0,0,0,0,0,0,0,0,0,0,0,0,0,0,0,0,0,0,0,0,0,0,0,0,0,0,0,0,0,0,0,0,0,0,0,0,0,0],"sum_hessian":[1.1511966E2,5.8713478E1,5.6406178E1,4.0804764E1,1.7908714E1,2.5693243E1,3.0712934E1,8.1699505E0,3.2634815E1,6.6136646E0,1.129505E1,7.4534764E0,1.8239767E1,6.5570903E0,1.61286E0,1.6305343E0,4.9831305E0,2.0924423E0,9.202607E0,2.4543505E0,4.999126E0,1.7017082E1,1.2226855E0,1.8402444E0,4.7168455E0,3.799365E0,1.1837655E0,1.1777284E0,8.024879E0,1.2285949E0,1.2257555E0,3.5449648E0,1.4541612E0,1.53309E1,1.6861812E0,1.6682876E0,2.1310773E0,1.3917841E0,6.633095E0,5.7936754E0,9.537225E0],"tree_param":{"num_deleted":"0","num_feature":"20","num_nodes":"41","size_leaf_vector":"1"}},{"base_weights":[1.1598144E-2,8.4459436E-1,-1.1532671E0,-4.073085E-1,1.0058167E0,-1.1911026E0,2.245336E-2,-8.903417E-1,2.8550583E-1,1.2922597E0,6.245925E-1,-1.2326182E0,7.317004E-3,-1.5960341E-2,-1.2079038E-1,9.130527E-2,-2.8664475E-2,1.3165148E0,3.8777094E-2,4.6943106E-2,9.017538E-1,-6.624431E-1,-1.3125588E-1,3.2534316E-2,1.3405852E-1,8.9821935E-1,-9.725992E-1,1.0991682E0,-6.1108924E-2,-1.0606222E0,4.896374E-2,1.1275529E-1,1.7141618E-2,-2.6363794E-2,-1.1865168E-1,1.2296348E-2,1.1786761E-1,-1.1779173E-1,-2.8255759E-2],"categories":[],"categories_nodes":[],"categories_segments":[],"categories_sizes":[],"default_left":[0,0,0,0,0,0,0,0,0,0,0,0,0,0,0,0,0,0,0,0,0,0,0,0,0,0,0,0,0,0,0,0,0,0,0,0,0,0,0],"id":6,"left_children":[1,3,5,7,9,11,-1,13,15,17,19,21,-1,-1,-1,-1,-1,23,-1,25,27,29,-1,-1,-1,31,33,35,-1,37,-1,-1,-1,-1,-1,-1,-1,-1,-1],"loss_changes":[1.07516716E2,1.3447636E1,2.6760178E0,2.9587278E0,5.4735107E0,2.4587784E0,0E0,9.68539E-1,1.725604E0,1.8943405E-1,4.2181206E0,1.1245728E0,0E0,0E0,0E0,0E0,0E0,2.9518127E-1,0E0,9.277721E0,6.0259256E0,3.913238E0,0E0,0E0,0E0,7.729502E-1,4.2823076E-1,1.113657E0,0E0,1.9777632E-1,0E0,0E0,0E0,0E0,0E0,0E0,0E0,0E0,0E0],"parents":[2147483647,0,0,1,1,2,2,3,3,4,4,5,5,7,7,8,8,9,9,10,10,11,11,17,17,19,19,20,20,21,21,25,25,26,26,27,27,29,29],"right_children":[2,4,6,8,10,12,-1,14,16,18,20,22,-1,-1,-1,-1,-1,24,-1,26,28,30,-1,-1,-1,32,34,36,-1,38,-1,-1,-1,-1,-1,-1,-1,-1,-1],"split_conditions":[1.6408142E-2,-3.8198206E-1,5.09E2,5.093119E-1,-1.1261718E-1,3.3E1,2.245336E-2,1.22E2,2.19E2,9.9431044E-1,2.4358767E3,3E0,7.317004E-3,-1.5960341E-2,-1.2079038E-1,9.130527E-2,-2.8664475E-2,1.77E2,3.8777094E-2,4.9424815E-1,9.701336E3,2.01E2,-1.3125588E-1,3.2534316E-2,1.3405852E-1,4.8887548E-1,2.9805137E4,2.8754719E4,-6.1108924E-2,5.094546E-1,4.896374E-2,1.1275529E-1,1.7141618E-2,-2.6363794E-2,-1.1865168E-1,1.2296348E-2,1.1786761E-1,-1.1779173E-1,-2.8255759E-2],"split_indices":[10,4,16,15,10,5,0,18,17,4,9,0,0,0,0,0,0,16,0,15,9,17,0,0,0,15,14,14,0,15,0,0,0,0,0,0,0,0,0],"split_type":[0,0,0,0,0,0,0,0,0,0,0,0,0,0,0,0,0,0,0,0,0,0,0,0,0,0,0,0,0,0,0,0,0,0,0,0,0,0,0],"sum_hessian":[1.08800644E2,6.3597183E1,4.520346E1,7.0816116E0,5.651557E1,4.4127197E1,1.0762652E0,4.004528E0,3.0770833E0,3.0904724E1,2.5610846E1,4.274848E1,1.3787141E0,1.6682733E0,2.3362548E0,1.1833426E0,1.8937409E0,2.9653975E1,1.2507496E0,8.68314E0,1.6927706E1,6.3984385E0,3.6350044E1,1.0472282E0,2.8606747E1,4.7969117E0,3.8862278E0,1.5215626E1,1.7120802E0,4.814016E0,1.5844223E0,3.2272172E0,1.5696944E0,1.4182664E0,2.4679615E0,1.3377067E0,1.3877919E1,3.7367806E0,1.0772352E0],"tree_param":{"num_deleted":"0","num_feature":"20","num_nodes":"39","size_leaf_vector":"1"}},{"base_weights":[-4.62011E-3,-7.940198E-1,1.0730306E0,2.5880812E-2,-1.1928314E0,-4.949506E-3,1.1291423E0,-9.521421E-2,2.5189525E-1,-6.8242484E-1,-1.2786237E0,7.5196856E-1,1.2554216E0,-1.0745699E-1,8.424866E-1,-9.3467426E-1,2.256093E-2,-1.2979406E-1,-3.676856E-2,8.9478004E-1,-3.703853E-2,1.2803596E-1,2.7273884E-2,-1.0630231E0,3.441483E-1,1.1005831E0,-1.9801302E-2,-9.200727E-3,-1.16717555E-1,5.666939E-3,9.962928E-1,-5.748742E-3,-1.4336067E-1,6.703658E-2,-1.5998228E-2,1.2948956E-1,1.963733E-2,1.0463741E-1,2.7939467E-2],"categories":[],"categories_nodes":[],"categories_segments":[],"categories_sizes":[],"default_left":[0,0,0,0,0,0,0,0,0,0,0,0,0,0,0,0,0,0,0,0,0,0,0,0,0,0,0,0,0,0,0,0,0,0,0,0,0,0,0],"id":7,"left_children":[1,3,5,7,9,-1,11,-1,13,15,17,19,21,23,25,27,-1,-1,-1,29,-1,-1,-1,31,33,35,-1,-1,-1,-1,37,-1,-1,-1,-1,-1,-1,-1,-1],"loss_changes":[9.095233E1,2.0208313E1,2.903267E0,4.9198313E0,9.46228E-1,0E0,1.1085968E0,0E0,3.9082217E0,2.071116E0,1.2833405E-1,2.4637232E0,4.0541077E-1,5.5747275E0,2.0757341E0,1.1759591E0,0E0,0E0,0E0,9.7251225E-1,0E0,0E0,0E0,1.4522347E0,1.5794809E0,7.464061E-1,0E0,0E0,0E0,0E0,9.279537E-2,0E0,0E0,0E0,0E0,0E0,0E0,0E0,0E0],"parents":[2147483647,0,0,1,1,2,2,3,3,4,4,6,6,8,8,9,9,10,10,11,11,12,12,13,13,14,14,15,15,19,19,23,23,24,24,25,25,30,30],"right_children":[2,4,6,8,10,-1,12,-1,14,16,18,20,22,24,26,28,-1,-1,-1,30,-1,-1,-1,32,34,36,-1,-1,-1,-1,38,-1,-1,-1,-1,-1,-1,-1,-1],"split_conditions":[2.3559231E-2,1.6408142E-2,-1.710165E-1,-5.6196827E-2,3E0,-4.949506E-3,6.0258407E-2,-9.521421E-2,-2.0845687E-2,3.4E1,3.5E1,8.525473E3,6.456135E-1,3E0,1.9E1,-8.357432E-2,2.256093E-2,-1.2979406E-1,-3.676856E-2,2.8654969E4,-3.703853E-2,1.2803596E-1,2.7273884E-2,5E0,4.9726653E-1,1.74E2,-1.9801302E-2,-9.200727E-3,-1.16717555E-1,5.666939E-3,8.874321E-1,-5.748742E-3,-1.4336067E-1,6.703658E-2,-1.5998228E-2,1.2948956E-1,1.963733E-2,1.0463741E-1,2.7939467E-2],"split_indices":[1,10,4,1,0,0,1,0,10,6,5,9,15,0,5,1,0,0,0,13,0,0,0,6,15,18,0,0,0,0,4,0,0,0,0,0,0,0,0],"split_type":[0,0,0,0,0,0,0,0,0,0,0,0,0,0,0,0,0,0,0,0,0,0,0,0,0,0,0,0,0,0,0,0,0,0,0,0,0,0,0],"sum_hessian":[1.049135E2,6.070738E1,4.420612E1,2.0171898E1,4.0535484E1,2.1101449E0,4.2095978E1,3.1834667E0,1.698843E1,7.121528E0,3.3413956E1,1.2303235E1,2.9792742E1,1.1070504E1,5.9179263E0,5.550325E0,1.5712034E0,3.2304092E1,1.1098632E0,1.1094326E1,1.2089088E0,2.8759964E1,1.0327766E0,3.1183698E0,7.9521346E0,4.695468E0,1.2224582E0,1.502059E0,4.048266E0,1.3669283E0,9.727398E0,1.1508362E0,1.9675335E0,4.6277933E0,3.3243413E0,3.509262E0,1.1862059E0,8.662655E0,1.0647433E0],"tree_param":{"num_deleted":"0","num_feature":"20","num_nodes":"39","size_leaf_vector":"1"}},{"base_weights":[-1.1934072E-2,-9.379974E-1,8.760352E-1,-1.20522946E-1,-1.1495064E0,1.3256395E-1,1.0503919E0,9.652893E-2,-4.974178E-1,-6.3863844E-1,-1.2343266E0,6.7243344E-1,-4.4357878E-1,2.569603E-1,1.1182117E0,3.445793E-1,-8.325216E-1,-9.1305506E-1,3.731333E-2,-1.2556443E-1,-2.987567E-2,1.5222007E-1,1.04885004E-1,2.6706564E-1,-9.693387E-2,-5.7136755E-2,7.956726E-2,1.1500422E-1,2.331885E-2,-2.1300365E-3,5.4912604E-2,-6.576545E-3,-9.804982E-1,-1.1328433E-1,6.7910715E-3,6.349058E-2,-3.926648E-2,4.7961216E-2,-7.6979995E-3,-2.6011823E-2,-1.1080702E-1],"categories":[],"categories_nodes":[],"categories_segments":[],"categories_sizes":[],"default_left":[0,0,0,0,0,0,0,0,0,0,0,0,0,0,0,0,0,0,0,0,0,0,0,0,0,0,0,0,0,0,0,0,0,0,0,0,0,0,0,0,0],"id":8,"left_children":[1,3,5,7,9,11,13,-1,15,17,19,21,23,25,27,29,31,33,-1,-1,-1,35,-1,37,-1,-1,-1,-1,-1,-1,-1,-1,39,-1,-1,-1,-1,-1,-1,-1,-1],"loss_changes":[8.4260414E1,8.532818E0,6.642498E0,5.156031E0,9.3310165E-1,3.7454953E0,1.9852676E0,0E0,2.8662555E0,2.4865265E0,2.8295898E-1,1.0385447E0,2.4871323E0,2.5180228E0,8.194847E-1,2.5939825E-1,7.1068E-1,1.4502897E0,0E0,0E0,0E0,1.232586E0,0E0,2.796989E-1,0E0,0E0,0E0,0E0,0E0,0E0,0E0,0E0,2.314496E-1,0E0,0E0,0E0,0E0,0E0,0E0,0E0,0E0],"parents":[2147483647,0,0,1,1,2,2,3,3,4,4,5,5,6,6,8,8,9,9,10,10,11,11,12,12,13,13,14,14,15,15,16,16,17,17,21,21,23,23,32,32],"right_children":[2,4,6,8,10,12,14,-1,16,18,20,22,24,26,28,30,32,34,-1,-1,-1,36,-1,38,-1,-1,-1,-1,-1,-1,-1,-1,40,-1,-1,-1,-1,-1,-1,-1,-1],"split_conditions":[1.4917543E-3,1.3592497E-2,2.9304177E-2,4.9684164E-1,3E0,8.8716346E-1,-3.8965486E-2,9.652893E-2,1.93E2,3.3E1,-1.1350128E-2,1.8817235E3,4.9192354E-1,3E0,1.8727206E-2,2.11E2,-7.5661176E-1,7.93385E1,3.731333E-2,-1.2556443E-1,-2.987567E-2,4.9538442E-1,1.04885004E-1,2.649593E-1,-9.693387E-2,-5.7136755E-2,7.956726E-2,1.1500422E-1,2.331885E-2,-2.1300365E-3,5.4912604E-2,-6.576545E-3,1E2,-1.1328433E-1,6.7910715E-3,6.349058E-2,-3.926648E-2,4.7961216E-2,-7.6979995E-3,-2.6011823E-2,-1.1080702E-1],"split_indices":[1,10,1,15,0,12,4,0,17,6,1,2,15,0,10,16,4,7,0,0,0,15,0,4,0,0,0,0,0,0,0,0,19,0,0,0,0,0,0,0,0],"split_type":[0,0,0,0,0,0,0,0,0,0,0,0,0,0,0,0,0,0,0,0,0,0,0,0,0,0,0,0,0,0,0,0,0,0,0,0,0,0,0,0,0],"sum_hessian":[1.0046795E2,4.91515E1,5.131645E1,1.0425844E1,3.8725655E1,1.008281E1,4.1233635E1,2.2841573E0,8.141687E0,6.728646E0,3.199701E1,5.118983E0,4.963828E0,3.624072E0,3.7609566E1,2.3097723E0,5.8319154E0,5.3697968E0,1.3588487E0,3.0949688E1,1.0473228E0,2.7385955E0,2.3803873E0,2.3200145E0,2.6438134E0,1.4042579E0,2.2198143E0,3.6014816E1,1.5947468E0,1.1494956E0,1.1602767E0,1.1770965E0,4.6548185E0,4.2604146E0,1.1093823E0,1.3645761E0,1.3740193E0,1.1905026E0,1.129512E0,1.1575117E0,3.497307E0],"tree_param":{"num_deleted":"0","num_feature":"20","num_nodes":"41","size_leaf_vector":"1"}},{"base_weights":[9.511886E-3,7.381551E-1,-8.373721E-1,1.2134376E0,3.3320156E-1,-1.1139549E-1,-1.0540558E0,1.24060415E-1,3.236638E-2,-3.265329E-1,5.6957644E-1,-5.940001E-1,4.0502393E-1,-1.1157564E0,1.1238556E-2,6.395952E-2,-7.5596136E-1,6.259167E-1,-1.6366124E-2,1.04499534E-1,-1.06346786E-1,-3.6147192E-2,7.823597E-1,-1.1655376E-1,2.353527E-2,-1.2329419E-1,-1.5458792E-1,2.8686985E-1,7.8107077E-1,-4.776582E-2,6.2067725E-2,1.0294215E-1,-3.5576237E-4,4.1388657E-2,-5.283117E-2,7.940326E-2,-4.4452883E-2,1.04979634E-1,3.557093E-2],"categories":[],"categories_nodes":[],"categories_segments":[],"categories_sizes":[],"default_left":[0,0,0,0,0,0,0,0,0,0,0,0,0,0,0,0,0,0,0,0,0,0,0,0,0,0,0,0,0,0,0,0,0,0,0,0,0,0,0],"id":9,"left_children":[1,3,5,7,9,11,13,-1,-1,15,17,19,21,23,-1,-1,25,27,-1,29,-1,-1,31,-1,-1,-1,33,35,37,-1,-1,-1,-1,-1,-1,-1,-1,-1,-1],"loss_changes":[6.0286053E1,9.701595E0,6.9908886E0,1.7321396E-1,4.822176E0,3.1079674E0,2.6214905E0,0E0,0E0,4.0007563E0,1.021688E0,2.194329E0,2.0622475E0,2.4959946E0,0E0,0E0,1.624351E0,8.738699E-1,0E0,1.3373969E0,0E0,0E0,8.655522E-1,0E0,0E0,0E0,1.0561637E0,3.3698354E0,1.1969576E0,0E0,0E0,0E0,0E0,0E0,0E0,0E0,0E0,0E0,0E0],"parents":[2147483647,0,0,1,1,2,2,3,3,4,4,5,5,6,6,9,9,10,10,11,11,12,12,13,13,16,16,17,17,19,19,22,22,26,26,27,27,28,28],"right_children":[2,4,6,8,10,12,14,-1,-1,16,18,20,22,24,-1,-1,26,28,-1,30,-1,-1,32,-1,-1,-1,34,36,38,-1,-1,-1,-1,-1,-1,-1,-1,-1,-1],"split_conditions":[-6.77402E-3,-3.7047085E-1,3E0,4.67E2,-1.6897373E-1,1.2E1,3.9E1,1.24060415E-1,3.236638E-2,7.388281E2,2.24E2,2.08E2,1.92E2,5.09E2,1.1238556E-2,6.395952E-2,8E0,7.804744E1,-1.6366124E-2,1.87E2,-1.06346786E-1,-3.6147192E-2,1.74E2,-1.1655376E-1,2.353527E-2,-1.2329419E-1,2.19E2,-3.974971E-2,6.0696745E-1,-4.776582E-2,6.2067725E-2,1.0294215E-1,-3.5576237E-4,4.1388657E-2,-5.283117E-2,7.940326E-2,-4.4452883E-2,1.04979634E-1,3.557093E-2],"split_indices":[10,10,0,17,4,5,5,0,0,2,18,16,16,16,0,0,5,7,0,16,0,0,18,0,0,0,17,10,4,0,0,0,0,0,0,0,0,0,0],"split_type":[0,0,0,0,0,0,0,0,0,0,0,0,0,0,0,0,0,0,0,0,0,0,0,0,0,0,0,0,0,0,0,0,0,0,0,0,0,0,0],"sum_hessian":[9.569459E1,5.1507164E1,4.4187424E1,2.2777445E1,2.872972E1,1.0505135E1,3.368229E1,2.1719997E1,1.0574489E0,7.477688E0,2.1252031E1,5.352699E0,5.1524353E0,3.203139E1,1.6508951E0,2.1503718E0,5.3273163E0,1.9871515E1,1.380516E0,2.464014E0,2.8886847E0,1.7135932E0,3.4388423E0,3.1025612E1,1.0057817E0,2.3852448E0,2.9420712E0,7.1330686E0,1.2738446E1,1.1930677E0,1.2709463E0,2.380631E0,1.0582113E0,1.1243484E0,1.8177228E0,4.1616693E0,2.971399E0,6.906927E0,5.8315196E0],"tree_param":{"num_deleted":"0","num_feature":"20","num_nodes":"39","size_leaf_vector":"1"}},{"base_weights":[-1.5035377E-2,-6.641255E-1,9.046347E-1,-1.0919683E0,-1.636845E-1,6.637512E-2,9.980735E-1,-1.1194965E0,-2.1342894E-2,-3.3646357E-1,6.00545E-1,-4.1323885E-1,8.415463E-2,1.0373995E0,-1.0744686E-2,-2.5314761E-2,-1.1465963E0,-8.913441E-1,-8.800932E-2,1.156127E-1,-2.9334E-2,2.1461617E-2,-8.619671E-2,1.8092193E-2,1.080057E0,-1.1697092E0,-2.8904496E-2,-2.6178947E-2,-1.0209641E0,1.3324411E-1,-6.988856E-1,-1.5151984E-2,1.1263193E0,-1.1953125E-1,-3.786738E-2,-1.161262E-1,-2.282731E-2,6.30672E-2,-4.3068353E-2,-1.1160292E-1,5.4206136E-3,1.1459371E-1,3.455804E-2],"categories":[],"categories_nodes":[],"categories_segments":[],"categories_sizes":[],"default_left":[0,0,0,0,0,0,0,0,0,0,0,0,0,0,0,0,0,0,0,0,0,0,0,0,0,0,0,0,0,0,0,0,0,0,0,0,0,0,0,0,0,0,0],"id":10,"left_children":[1,3,5,7,9,11,13,15,-1,17,19,21,-1,23,-1,-1,25,27,29,-1,-1,-1,-1,-1,31,33,-1,-1,35,37,39,-1,41,-1,-1,-1,-1,-1,-1,-1,-1,-1,-1],"loss_changes":[5.7486286E1,1.19059925E1,3.0552063E0,4.9269104E-1,3.7923207E0,2.2319393E0,1.6672058E0,3.9287186E-1,0E0,3.0672042E0,3.0074043E0,1.2560158E0,0E0,1.0704918E0,0E0,0E0,2.155075E-1,2.9964638E-1,2.3732412E0,0E0,0E0,0E0,0E0,0E0,2.039669E0,9.156418E-2,0E0,0E0,3.372817E-1,3.9812171E0,1.5199137E0,0E0,9.004974E-2,0E0,0E0,0E0,0E0,0E0,0E0,0E0,0E0,0E0,0E0],"parents":[2147483647,0,0,1,1,2,2,3,3,4,4,5,5,6,6,7,7,9,9,10,10,11,11,13,13,16,16,17,17,18,18,24,24,25,25,28,28,29,29,30,30,32,32],"right_children":[2,4,6,8,10,12,14,16,-1,18,20,22,-1,24,-1,-1,26,28,30,-1,-1,-1,-1,-1,32,34,-1,-1,36,38,40,-1,42,-1,-1,-1,-1,-1,-1,-1,-1,-1,-1],"split_conditions":[2.3559231E-2,-5.4986324E-2,-3.8965486E-2,5.8153594E-1,9.782223E-1,5.062941E-1,2.462475E3,3.6E1,-2.1342894E-2,-4.397235E-1,2.69E2,4.6077974E-2,8.415463E-2,5.4E1,-1.0744686E-2,-2.5314761E-2,9.826642E-1,7.519055E1,1.63E2,1.156127E-1,-2.9334E-2,2.1461617E-2,-8.619671E-2,1.8092193E-2,1.79E2,2.9026797E3,-2.8904496E-2,-2.6178947E-2,5.8E1,4.9791926E-1,2.43E2,-1.5151984E-2,6.4995646E-1,-1.1953125E-1,-3.786738E-2,-1.161262E-1,-2.282731E-2,6.30672E-2,-4.3068353E-2,-1.1160292E-1,5.4206136E-3,1.1459371E-1,3.455804E-2],"split_indices":[1,1,4,15,12,15,3,18,0,4,17,1,0,18,0,0,12,7,19,0,0,0,0,0,17,2,0,0,6,15,17,0,15,0,0,0,0,0,0,0,0,0,0],"split_type":[0,0,0,0,0,0,0,0,0,0,0,0,0,0,0,0,0,0,0,0,0,0,0,0,0,0,0,0,0,0,0,0,0,0,0,0,0,0,0,0,0,0,0],"sum_hessian":[9.429377E1,5.544168E1,3.885209E1,2.9251575E1,2.6190104E1,4.067956E0,3.4784134E1,2.8096914E1,1.1546613E0,2.181732E1,4.3727837E0,2.801511E0,1.2664449E0,3.3648785E1,1.1353487E0,1.165897E0,2.6931019E1,5.947354E0,1.5869966E1,2.5157688E0,1.857015E0,1.38515E0,1.4163611E0,1.8450521E0,3.1803732E1,2.5869762E1,1.0612564E0,1.5310127E0,4.4163413E0,1.2224318E1,3.645648E0,1.0690348E0,3.0734697E1,2.456364E1,1.306121E0,3.3571923E0,1.0591489E0,6.4322333E0,5.792084E0,2.0359752E0,1.6096728E0,2.9525053E1,1.2096446E0],"tree_param":{"num_deleted":"0","num_feature":"20","num_nodes":"43","size_leaf_vector":"1"}},{"base_weights":[6.0402002E-2,-7.170294E-1,7.925557E-1,-1.0499179E0,-2.993832E-1,4.2238212E-1,1.1702304E-1,-1.1117257E0,-1.8624399E-2,6.388494E-1,-6.9100773E-1,-1.2479772E-1,6.365213E-1,-1.15102366E-1,-3.8984817E-2,9.477453E-1,-4.1018084E-2,1.3877535E-1,-9.236561E-1,9.62845E-2,-6.087802E-1,7.497252E-1,9.8289214E-2,1.1906874E0,9.0879743E-4,-6.463407E-2,8.5420966E-2,-2.2489613E-1,-1.0798275E0,-9.3863326E-1,4.311496E-2,3.249377E-3,8.51885E-1,-5.3213906E-2,6.0248096E-2,1.3445209E-1,3.5363685E-2,-7.407578E-2,4.3249313E-2,-1.2452189E-1,-1.7804524E-2,-1.312725E-1,2.233281E-2,1.1042235E-1,4.7529824E-2],"categories":[],"categories_nodes":[],"categories_segments":[],"categories_sizes":[],"default_left":[0,0,0,0,0,0,0,0,0,0,0,0,0,0,0,0,0,0,0,0,0,0,0,0,0,0,0,0,0,0,0,0,0,0,0,0,0,0,0,0,0,0,0,0,0],"id":11,"left_children":[1,3,5,7,9,11,-1,13,-1,15,17,19,21,-1,-1,23,-1,25,27,-1,29,31,33,35,-1,-1,-1,37,39,41,-1,-1,43,-1,-1,-1,-1,-1,-1,-1,-1,-1,-1,-1,-1],"loss_changes":[4.9274857E1,5.52866E0,5.733116E0,1.0200672E0,7.8045893E0,2.8985982E0,0E0,1.5413284E-1,0E0,2.4693859E0,2.9502277E0,4.588643E0,9.899287E-1,0E0,0E0,1.1892066E0,0E0,2.8384929E0,1.017334E0,0E0,2.4198337E0,1.0180607E0,1.6506383E0,6.1832428E-2,0E0,0E0,0E0,1.464072E0,1.1467762E0,2.3686557E0,0E0,0E0,6.585369E-1,0E0,0E0,0E0,0E0,0E0,0E0,0E0,0E0,0E0,0E0,0E0,0E0],"parents":[2147483647,0,0,1,1,2,2,3,3,4,4,5,5,7,7,9,9,10,10,11,11,12,12,15,15,17,17,18,18,20,20,21,21,22,22,23,23,27,27,28,28,29,29,32,32],"right_children":[2,4,6,8,10,12,-1,14,-1,16,18,20,22,-1,-1,24,-1,26,28,-1,30,32,34,36,-1,-1,-1,38,40,42,-1,-1,44,-1,-1,-1,-1,-1,-1,-1,-1,-1,-1,-1,-1],"split_conditions":[1.4917543E-3,8.4762245E-1,6.911317E-2,-1.9467538E-2,7.730402E1,7E0,1.1702304E-1,5.8153594E-1,-1.8624399E-2,5.0760394E-1,1.81E2,4.834522E-1,1.83E2,-1.15102366E-1,-3.8984817E-2,1.9E1,-4.1018084E-2,2.2E1,7.388281E2,9.62845E-2,7.9459206E1,1.83E2,2.9304177E-2,3.41E2,9.0879743E-4,-6.463407E-2,8.5420966E-2,4.296329E2,5.7E1,4.04E2,4.311496E-2,3.249377E-3,3.1683564E-2,-5.3213906E-2,6.0248096E-2,1.3445209E-1,3.5363685E-2,-7.407578E-2,4.3249313E-2,-1.2452189E-1,-1.7804524E-2,-1.312725E-1,2.233281E-2,1.1042235E-1,4.7529824E-2],"split_indices":[1,12,1,1,8,5,0,15,0,15,17,15,19,0,0,5,0,6,2,0,8,16,1,17,0,0,0,2,6,16,0,0,1,0,0,0,0,0,0,0,0,0,0,0,0],"split_type":[0,0,0,0,0,0,0,0,0,0,0,0,0,0,0,0,0,0,0,0,0,0,0,0,0,0,0,0,0,0,0,0,0,0,0,0,0,0,0,0,0,0,0,0,0],"sum_hessian":[8.457033E1,4.1026905E1,4.3543423E1,2.19876E1,1.9039303E1,2.3059898E1,2.0483522E1,2.0251146E1,1.736454E0,5.4209085E0,1.3618395E1,6.6034985E0,1.64564E1,1.8641829E1,1.609318E0,4.262368E0,1.1585399E0,3.070476E0,1.0547918E1,1.728857E0,4.8746414E0,1.3272016E1,3.184384E0,3.1727107E0,1.0896577E0,1.509991E0,1.5604849E0,2.3725314E0,8.175387E0,3.7747455E0,1.099896E0,1.8190578E0,1.1452958E1,1.390415E0,1.793969E0,2.1680129E0,1.0046977E0,1.2583054E0,1.1142259E0,6.586541E0,1.5888461E0,2.7572906E0,1.0174549E0,5.70083E0,5.752128E0],"tree_param":{"num_deleted":"0","num_feature":"20","num_nodes":"45","size_leaf_vector":"1"}},{"base_weights":[-1.48380445E-2,-6.751951E-1,9.180397E-1,-4.6076402E-2,-1.0295076E0,5.4291964E-1,1.1130162E-1,1.8740314E-1,-8.003251E-1,-5.256632E-1,-1.1326907E-1,7.993003E-1,-1.1399133E-1,-7.707281E-2,3.3816904E-1,-1.0811533E-1,-6.9279396E-3,-8.03076E-1,4.293811E-2,-1.6103595E-2,9.8958397E-1,5.9132475E-2,-6.6321456E-1,7.1760255E-1,-1.7518556E-1,-1.2400779E-2,-1.0360217E-1,4.5739058E-1,1.162641E-1,-8.329892E-2,-1.6116992E-2,9.387579E-2,-3.6238827E-2,-5.6808222E-2,7.1427025E-2,7.901013E-2,-1.6862767E-2],"categories":[],"categories_nodes":[],"categories_segments":[],"categories_sizes":[],"default_left":[0,0,0,0,0,0,0,0,0,0,0,0,0,0,0,0,0,0,0,0,0,0,0,0,0,0,0,0,0,0,0,0,0,0,0,0,0],"id":12,"left_children":[1,3,5,7,9,11,-1,13,15,17,-1,19,21,-1,23,-1,-1,25,-1,-1,27,-1,29,31,33,-1,-1,35,-1,-1,-1,-1,-1,-1,-1,-1,-1],"loss_changes":[5.2835213E1,1.1143639E1,1.9962063E0,3.5196974E0,1.0718842E0,2.4679103E0,0E0,2.488423E0,8.926451E-1,2.2834973E0,0E0,2.0370722E0,2.2658489E0,0E0,2.8566642E0,0E0,0E0,8.2359815E-1,0E0,0E0,2.7097702E-1,0E0,1.3770247E-1,2.3125777E0,2.7689908E0,0E0,0E0,9.2207545E-1,0E0,0E0,0E0,0E0,0E0,0E0,0E0,0E0,0E0],"parents":[2147483647,0,0,1,1,2,2,3,3,4,4,5,5,7,7,8,8,9,9,11,11,12,12,14,14,17,17,20,20,22,22,23,23,24,24,27,27],"right_children":[2,4,6,8,10,12,-1,14,16,18,-1,20,22,-1,24,-1,-1,26,-1,-1,28,-1,30,32,34,-1,-1,36,-1,-1,-1,-1,-1,-1,-1,-1,-1],"split_conditions":[2.3559231E-2,1.6408142E-2,6.5415636E-2,1.69E2,3E0,1.6001837E3,1.1130162E-1,2.7581607E4,1.9086119E3,3.4E1,-1.1326907E-1,2.8654969E4,8.0618744E1,-7.707281E-2,4.152854E3,-1.0811533E-1,-6.9279396E-3,-8.357432E-2,4.293811E-2,-1.6103595E-2,-9.658808E-2,5.9132475E-2,7.9260484E4,9.238002E4,1.28E2,-1.2400779E-2,-1.0360217E-1,-4.0728498E-1,1.162641E-1,-8.329892E-2,-1.6116992E-2,9.387579E-2,-3.6238827E-2,-5.6808222E-2,7.1427025E-2,7.901013E-2,-1.6862767E-2],"split_indices":[1,10,1,19,0,3,0,13,2,6,0,13,8,0,9,0,0,1,0,0,10,0,13,13,19,0,0,10,0,0,0,0,0,0,0,0,0],"split_type":[0,0,0,0,0,0,0,0,0,0,0,0,0,0,0,0,0,0,0,0,0,0,0,0,0,0,0,0,0,0,0,0,0,0,0,0,0],"sum_hessian":[8.3760735E1,4.920568E1,3.455505E1,1.8135054E1,3.107063E1,1.3112377E1,2.1442673E1,1.4422171E1,3.7128818E0,6.3173556E0,2.4753273E1,9.275541E0,3.8368351E0,1.4017618E0,1.302041E1,2.336436E0,1.3764458E0,5.018692E0,1.2986637E0,1.5593609E0,7.716181E0,1.6461641E0,2.1906712E0,7.2579813E0,5.7624283E0,1.6732597E0,3.3454323E0,2.7873595E0,4.9288216E0,1.1444597E0,1.0462114E0,6.1328897E0,1.1250912E0,4.247505E0,1.514923E0,1.648907E0,1.1384525E0],"tree_param":{"num_deleted":"0","num_feature":"20","num_nodes":"37","size_leaf_vector":"1"}},{"base_weights":[-3.804711E-2,-7.997028E-1,7.177279E-1,-9.396584E-1,2.8831425E-1,1.1146678E-1,4.297443E-1,2.6765086E-3,-9.710061E-2,6.9132733E-1,-7.185866E-2,-2.5216484E-2,6.3071847E-1,1.0150703E-1,1.9231552E-2,-3.1455314E-1,8.204739E-2,7.2010726E-1,-2.9337836E-2,6.1924372E-2,-1.0454657E-1,-9.83195E-2,8.568298E-1,8.040673E-2,-3.1367715E-2,3.5476726E-2,-5.4074217E-2,9.361077E-2,-4.907972E-3],"categories":[],"categories_nodes":[],"categories_segments":[],"categories_sizes":[],"default_left":[0,0,0,0,0,0,0,0,0,0,0,0,0,0,0,0,0,0,0,0,0,0,0,0,0,0,0,0,0],"id":13,"left_children":[1,3,5,7,9,-1,11,-1,-1,13,-1,15,17,-1,-1,19,-1,21,-1,23,-1,25,27,-1,-1,-1,-1,-1,-1],"loss_changes":[4.624643E1,6.3603973E0,4.1336727E0,1.1065292E0,2.6568274E0,0E0,2.3029637E0,0E0,0E0,5.0125766E-1,0E0,2.368608E0,1.647541E0,0E0,0E0,2.0320725E0,0E0,1.8906507E0,0E0,1.8307657E0,0E0,8.348751E-1,1.0467758E0,0E0,0E0,0E0,0E0,0E0,0E0],"parents":[2147483647,0,0,1,1,2,2,3,3,4,4,6,6,9,9,11,11,12,12,15,15,17,17,19,19,21,21,22,22],"right_children":[2,4,6,8,10,-1,12,-1,-1,14,-1,16,18,-1,-1,20,-1,22,-1,24,-1,26,28,-1,-1,-1,-1,-1,-1],"split_conditions":[1.4917543E-3,9.7450787E-1,-3.5744148E-1,-5.530195E-1,8.505712E1,1.1146678E-1,9E0,2.6765086E-3,-9.710061E-2,5.02736E-1,-7.185866E-2,4.1E2,3.1E1,1.0150703E-1,1.9231552E-2,3.67E2,8.204739E-2,1.83E2,-2.9337836E-2,4.897897E-1,-1.0454657E-1,3.2516277E4,4.7416734E-3,8.040673E-2,-3.1367715E-2,3.5476726E-2,-5.4074217E-2,9.361077E-2,-4.907972E-3],"split_indices":[1,12,10,10,8,0,5,0,0,15,0,16,6,0,0,16,0,16,0,15,0,14,10,0,0,0,0,0,0],"split_type":[0,0,0,0,0,0,0,0,0,0,0,0,0,0,0,0,0,0,0,0,0,0,0,0,0,0,0,0,0],"sum_hessian":[7.8342E1,3.899025E1,3.9351757E1,3.4667233E1,4.323015E0,1.5338904E1,2.4012852E1,1.0937566E0,3.3573475E1,3.3111389E0,1.0118762E0,7.62533E0,1.6387522E1,1.3810178E0,1.9301212E0,6.1494617E0,1.4758683E0,1.5143429E1,1.2440934E0,4.6629524E0,1.4865094E0,2.2078764E0,1.2935553E1,1.1835855E0,3.4793668E0,1.1886754E0,1.019201E0,1.1863977E1,1.0715743E0],"tree_param":{"num_deleted":"0","num_feature":"20","num_nodes":"29","size_leaf_vector":"1"}},{"base_weights":[-5.0790988E-2,-9.537926E-1,4.227497E-1,-1.0196344E0,1.5279626E-2,1.1114154E-1,8.9764E-2,-1.0862942E-1,-5.582005E-1,4.4398254E-1,-2.7422425E-1,-9.889344E-2,1.558465E-2,-4.9028944E-2,9.337234E-1,1.2746089E-2,-9.4950217E-1,2.729491E-1,-5.548751E-1,1.0150658E0,2.1805348E-2,-6.6997147E-1,2.9371053E-1,-1.2879793E-1,9.70196E-3,-5.4298956E-2,5.5487465E-2,-8.573928E-2,1.9339252E-3,2.3219792E-2,1.1483246E-1,-1.0977464E-2,-8.382309E-2,-4.7935145E-3,6.4194046E-2],"categories":[],"categories_nodes":[],"categories_segments":[],"categories_sizes":[],"default_left":[0,0,0,0,0,0,0,0,0,0,0,0,0,0,0,0,0,0,0,0,0,0,0,0,0,0,0,0,0,0,0,0,0,0,0],"id":14,"left_children":[1,3,5,7,-1,-1,9,-1,11,13,15,-1,-1,17,19,21,23,25,27,29,-1,31,33,-1,-1,-1,-1,-1,-1,-1,-1,-1,-1,-1,-1],"loss_changes":[3.306237E1,2.092493E0,1.15483885E1,1.693325E-1,0E0,0E0,4.67657E0,0E0,1.765851E0,4.4608536E0,3.5082955E0,0E0,0E0,1.7903615E0,3.155861E-1,2.8146994E0,2.0355654E0,1.8699114E0,7.537222E-1,5.6882095E-1,0E0,3.1177258E-1,1.2637889E0,0E0,0E0,0E0,0E0,0E0,0E0,0E0,0E0,0E0,0E0,0E0,0E0],"parents":[2147483647,0,0,1,1,2,2,3,3,6,6,8,8,9,9,10,10,13,13,14,14,15,15,16,16,17,17,18,18,19,19,21,21,22,22],"right_children":[2,4,6,8,-1,-1,10,-1,12,14,16,-1,-1,18,20,22,24,26,28,30,-1,32,34,-1,-1,-1,-1,-1,-1,-1,-1,-1,-1,-1,-1],"split_conditions":[-4.091401E-2,9.826642E-1,-2.4635924E-1,1.2E1,1.5279626E-2,1.1114154E-1,5.077182E4,-1.0862942E-1,6.1184503E-2,7.838287E1,1.69E2,-9.889344E-2,1.558465E-2,1.42E2,1.9E2,-3.5704095E-3,5.0949E-1,8.6324805E-1,2.8224912E3,2.4501536E3,2.1805348E-2,4.061694E-3,7.726364E1,-1.2879793E-1,9.70196E-3,-5.4298956E-2,5.5487465E-2,-8.573928E-2,1.9339252E-3,2.3219792E-2,1.1483246E-1,-1.0977464E-2,-8.382309E-2,-4.7935145E-3,6.4194046E-2],"split_indices":[1,12,10,5,0,0,13,0,10,7,19,0,0,18,18,1,15,12,9,9,0,10,8,0,0,0,0,0,0,0,0,0,0,0,0],"split_type":[0,0,0,0,0,0,0,0,0,0,0,0,0,0,0,0,0,0,0,0,0,0,0,0,0,0,0,0,0,0,0,0,0,0,0],"sum_hessian":[7.537639E1,2.558115E1,4.9795235E1,2.421872E1,1.3624297E0,1.5467773E1,3.4327465E1,1.997842E1,4.2402997E0,1.7285828E1,1.7041636E1,2.4047272E0,1.8355726E0,9.062597E0,8.223231E0,1.264785E1,4.3937855E0,5.819082E0,3.2435153E0,7.0083275E0,1.2149038E0,3.2838519E0,9.363997E0,3.1456592E0,1.248126E0,1.2565159E0,4.562566E0,1.8013425E0,1.4421728E0,1.4183385E0,5.589989E0,1.1401826E0,2.1436694E0,5.1619725E0,4.2020254E0],"tree_param":{"num_deleted":"0","num_feature":"20","num_nodes":"35","size_leaf_vector":"1"}},{"base_weights":[4.122909E-3,-7.079762E-1,6.62942E-1,-8.830502E-1,-1.1196195E-3,3.7037593E-1,1.0259922E-1,-3.0163714E-1,-1.0142449E0,7.8284675E-1,-6.713111E-1,-6.1574727E-3,5.971839E-1,4.208669E-1,-7.3532224E-1,-2.6265487E-2,-1.039751E0,9.741135E-2,2.1535717E-2,-9.7992145E-2,1.0865775E-2,-1.0546491E-1,2.982553E-1,8.0383784E-1,-3.467416E-2,-1.9207748E-2,8.01939E-2,-1.7108953E-2,-8.588924E-2,-1.06023155E-1,-3.0632285E-2,6.988947E-1,-5.1359755E-1,2.7073544E-1,1.0374551E0,7.7154905E-2,-5.8287376E-1,1.04032055E-1,-1.3513793E-2,-3.0274312E-3,-7.59257E-2,-3.483962E-2,6.5221E-2,1.150767E-1,1.6901903E-2,1.2984931E-3,-8.8966034E-2],"categories":[],"categories_nodes":[],"categories_segments":[],"categories_sizes":[],"default_left":[0,0,0,0,0,0,0,0,0,0,0,0,0,0,0,0,0,0,0,0,0,0,0,0,0,0,0,0,0,0,0,0,0,0,0,0,0,0,0,0,0,0,0,0,0,0,0],"id":15,"left_children":[1,3,5,7,9,11,-1,13,15,17,19,21,23,25,27,-1,29,-1,-1,-1,-1,-1,31,33,35,-1,-1,-1,-1,-1,-1,37,39,41,43,-1,45,-1,-1,-1,-1,-1,-1,-1,-1,-1,-1],"loss_changes":[3.5268543E1,4.47019E0,3.7672863E0,1.9028244E0,4.8199716E0,1.9838378E0,0E0,2.4258718E0,1.7169571E-1,2.4920511E-1,1.2967384E0,3.4125E0,1.918685E0,8.94361E-1,1.7271566E-1,0E0,7.232666E-3,0E0,0E0,0E0,0E0,0E0,3.0591717E0,1.0832467E0,2.4507086E0,0E0,0E0,0E0,0E0,0E0,0E0,1.8440819E0,3.7115026E-1,1.335042E0,5.2017164E-1,0E0,6.083281E-1,0E0,0E0,0E0,0E0,0E0,0E0,0E0,0E0,0E0,0E0],"parents":[2147483647,0,0,1,1,2,2,3,3,4,4,5,5,7,7,8,8,9,9,10,10,11,11,12,12,13,13,14,14,16,16,22,22,23,23,24,24,31,31,32,32,33,33,34,34,36,36],"right_children":[2,4,6,8,10,12,-1,14,16,18,20,22,24,26,28,-1,30,-1,-1,-1,-1,-1,32,34,36,-1,-1,-1,-1,-1,-1,38,40,42,44,-1,46,-1,-1,-1,-1,-1,-1,-1,-1,-1,-1],"split_conditions":[1.4917543E-3,9.505229E-1,6.911317E-2,8.6E1,8.018018E1,7.726364E1,1.0259922E-1,4.9684164E-1,-1.1261718E-1,1.42E2,-4.0682203E-1,3.3321363E4,1.75E2,5.8E1,-8.7720096E-2,-2.6265487E-2,1.3386739E5,9.741135E-2,2.1535717E-2,-9.7992145E-2,1.0865775E-2,-1.0546491E-1,9.780775E4,-9.060515E-2,1.298096E3,-1.9207748E-2,8.01939E-2,-1.7108953E-2,-8.588924E-2,-1.06023155E-1,-3.0632285E-2,4.9658337E-1,8.2041675E-1,2.96E2,8.680743E4,7.7154905E-2,-4.0852215E-2,1.04032055E-1,-1.3513793E-2,-3.0274312E-3,-7.59257E-2,-3.483962E-2,6.5221E-2,1.150767E-1,1.6901903E-2,1.2984931E-3,-8.8966034E-2],"split_indices":[1,12,1,19,8,8,0,15,10,18,4,14,19,19,1,0,14,0,0,0,0,0,13,10,3,0,0,0,0,0,0,15,12,17,14,0,10,0,0,0,0,0,0,0,0,0,0],"split_type":[0,0,0,0,0,0,0,0,0,0,0,0,0,0,0,0,0,0,0,0,0,0,0,0,0,0,0,0,0,0,0,0,0,0,0,0,0,0,0,0,0,0,0,0,0,0,0],"sum_hessian":[7.317587E1,3.5130108E1,3.8045765E1,2.7956572E1,7.1735363E0,2.2186682E1,1.5859084E1,5.7543387E0,2.2202232E1,3.2286642E0,3.944872E0,8.706126E0,1.3480556E1,2.1695318E0,3.5848072E0,1.0995475E0,2.1102684E1,1.8788764E0,1.3497877E0,2.6428254E0,1.3020465E0,1.4044003E0,7.3017254E0,9.953128E0,3.5274274E0,1.0218569E0,1.1476749E0,1.0724511E0,2.512356E0,2.0095934E1,1.0067503E0,4.982205E0,2.3195205E0,3.6904945E0,6.2626333E0,1.2628145E0,2.264613E0,3.3595688E0,1.6226362E0,1.1601727E0,1.1593478E0,1.4400349E0,2.2504597E0,5.252229E0,1.0104041E0,1.0951751E0,1.1694379E0],"tree_param":{"num_deleted":"0","num_feature":"20","num_nodes":"47","size_leaf_vector":"1"}},{"base_weights":[-1.5837472E-2,-4.849699E-1,7.598397E-1,-9.7551936E-1,-1.7959881E-1,1.005343E0,4.0746474E-1,-1.4971686E-3,-1.07921235E-1,7.797842E-2,-4.6328947E-1,1.4313578E-2,1.06418334E-1,-3.1941976E-2,5.645099E-1,3.656717E-1,-3.4344363E-1,1.4293067E-1,-7.5867116E-1,8.2201153E-1,2.1152647E-2,4.0184986E-2,6.609068E-1,-7.6027155E-1,3.9145154E-1,5.546998E-1,-6.523753E-2,-2.7570516E-1,-9.927645E-2,2.1622883E-2,8.9804906E-1,-9.785699E-2,6.940516E-2,6.328529E-2,-8.449368E-2,1.0862497E-1,-2.2526782E-2,3.7666936E-3,-1.0323969E-1,6.999064E-2,-1.1634982E-2,1.5937065E-3,7.6599255E-2,-9.1818504E-2,5.8313098E-2,2.258697E-2,9.9307045E-2],"categories":[],"categories_nodes":[],"categories_segments":[],"categories_sizes":[],"default_left":[0,0,0,0,0,0,0,0,0,0,0,0,0,0,0,0,0,0,0,0,0,0,0,0,0,0,0,0,0,0,0,0,0,0,0,0,0,0,0,0,0,0,0,0,0,0,0],"id":16,"left_children":[1,3,5,7,9,11,13,-1,-1,15,17,-1,-1,-1,19,21,23,25,27,29,31,33,35,37,39,41,-1,43,-1,-1,45,-1,-1,-1,-1,-1,-1,-1,-1,-1,-1,-1,-1,-1,-1,-1,-1],"loss_changes":[2.4963081E1,6.22511E0,1.8275871E0,1.5941048E0,2.049913E0,5.8636475E-1,1.5844896E0,0E0,0E0,1.9805808E0,2.4826238E0,0E0,0E0,0E0,1.4484584E0,8.937526E-1,2.357047E0,2.059957E0,7.5212383E-1,1.3201284E-1,3.635743E0,3.4828303E0,2.1131968E0,1.0441875E0,5.659497E-1,4.3823028E-1,0E0,2.9338284E0,0E0,0E0,1.573124E-1,0E0,0E0,0E0,0E0,0E0,0E0,0E0,0E0,0E0,0E0,0E0,0E0,0E0,0E0,0E0,0E0],"parents":[2147483647,0,0,1,1,2,2,3,3,4,4,5,5,6,6,9,9,10,10,14,14,15,15,16,16,17,17,18,18,19,19,20,20,21,21,22,22,23,23,24,24,25,25,27,27,30,30],"right_children":[2,4,6,8,10,12,14,-1,-1,16,18,-1,-1,-1,20,22,24,26,28,30,32,34,36,38,40,42,-1,44,-1,-1,46,-1,-1,-1,-1,-1,-1,-1,-1,-1,-1,-1,-1,-1,-1,-1,-1],"split_conditions":[2.8176524E-2,-6.502428E-2,7.5824755E-1,1.97E2,4.061694E-3,4.0120658E-2,-7.1572885E-2,-1.4971686E-3,-1.07921235E-1,9.07953E-3,5E0,1.4313578E-2,1.06418334E-1,-3.1941976E-2,8E0,7.838287E1,7.841446E1,5E0,3E0,8.4E1,1.1E1,7.58835E1,8.31021E3,-6.459345E-2,1.2E1,6.9135495E-2,-6.523753E-2,2E1,-9.927645E-2,2.1622883E-2,2.8754719E4,-9.785699E-2,6.940516E-2,6.328529E-2,-8.449368E-2,1.0862497E-1,-2.2526782E-2,3.7666936E-3,-1.0323969E-1,6.999064E-2,-1.1634982E-2,1.5937065E-3,7.6599255E-2,-9.1818504E-2,5.8313098E-2,2.258697E-2,9.9307045E-2],"split_indices":[1,1,12,16,10,1,10,0,0,1,6,0,0,0,6,7,8,0,0,18,6,7,9,10,6,10,0,6,0,0,14,0,0,0,0,0,0,0,0,0,0,0,0,0,0,0,0],"split_type":[0,0,0,0,0,0,0,0,0,0,0,0,0,0,0,0,0,0,0,0,0,0,0,0,0,0,0,0,0,0,0,0,0,0,0,0,0,0,0,0,0,0,0,0,0,0,0],"sum_hessian":[6.658697E1,4.1725815E1,2.486115E1,1.5166979E1,2.6558836E1,1.3560419E1,1.1300731E1,1.5892769E0,1.35777025E1,1.4300138E1,1.22586975E1,1.0855867E0,1.2474833E1,1.8240712E0,9.47666E0,8.577087E0,5.723051E0,4.1852684E0,8.073428E0,6.0816674E0,3.3949924E0,4.6199074E0,3.9571798E0,3.6297493E0,2.0933018E0,2.9568791E0,1.2283894E0,3.346633E0,4.7267957E0,1.1068916E0,4.974776E0,1.1830626E0,2.2119298E0,2.9377992E0,1.682108E0,2.5212605E0,1.4359192E0,1.1421796E0,2.4875698E0,1.0669155E0,1.0263863E0,1.1359118E0,1.8209674E0,1.8749286E0,1.4717044E0,1.0344112E0,3.9403648E0],"tree_param":{"num_deleted":"0","num_feature":"20","num_nodes":"47","size_leaf_vector":"1"}},{"base_weights":[-1.2820031E-2,-5.5530363E-1,6.585164E-1,-2.8508964E-1,-9.9626577E-1,1.04638E-1,3.0673027E-1,-9.657302E-2,-5.2477974E-2,-1.08462445E-1,-3.1400148E-2,1.1234059E-1,9.1850094E-2,-2.870705E-1,5.2110463E-1,4.153346E-1,-4.0702954E-1,-8.278875E-2,-8.585748E-2,9.4728395E-2,-2.2857545E-2,-4.7645652E-1,7.777703E-1,3.549146E-1,-1.105438E-1,1.838684E-2,-6.494151E-2,8.385582E-3,-8.161759E-2,-1.7710097E-2,9.833507E-2,-2.3750186E-2,7.221063E-2],"categories":[],"categories_nodes":[],"categories_segments":[],"categories_sizes":[],"default_left":[0,0,0,0,0,0,0,0,0,0,0,0,0,0,0,0,0,0,0,0,0,0,0,0,0,0,0,0,0,0,0,0,0],"id":17,"left_children":[1,3,5,7,9,-1,11,-1,13,-1,-1,15,-1,17,19,21,23,25,-1,-1,-1,27,29,31,-1,-1,-1,-1,-1,-1,-1,-1,-1],"loss_changes":[2.4163744E1,4.086973E0,3.7262497E0,3.7722955E0,4.755001E-1,0E0,1.914801E0,0E0,2.7134113E0,0E0,0E0,2.3747926E0,0E0,1.5829592E0,2.097085E0,3.3917615E0,3.4092803E0,1.8635992E0,0E0,0E0,0E0,7.006293E-1,1.5533843E0,9.25967E-1,0E0,0E0,0E0,0E0,0E0,0E0,0E0,0E0,0E0],"parents":[2147483647,0,0,1,1,2,2,3,3,4,4,6,6,8,8,11,11,13,13,14,14,15,15,16,16,17,17,21,21,22,22,23,23],"right_children":[2,4,6,8,10,-1,12,-1,14,-1,-1,16,-1,18,20,22,24,26,-1,-1,-1,28,30,32,-1,-1,-1,-1,-1,-1,-1,-1,-1],"split_conditions":[1.4451156E-2,2.8999622E3,-2.4635924E-1,-1.2056899E-1,1.7509644E3,1.04638E-1,8.255548E1,-9.657302E-2,1.6E1,-1.08462445E-1,-3.1400148E-2,7.944834E1,9.1850094E-2,8E0,1.93E2,-7.1004465E-2,5.0309242E4,9.238002E4,-8.585748E-2,9.4728395E-2,-2.2857545E-2,4.0120658E-2,2.950835E4,8.096082E1,-1.105438E-1,1.838684E-2,-6.494151E-2,8.385582E-3,-8.161759E-2,-1.7710097E-2,9.833507E-2,-2.3750186E-2,7.221063E-2],"split_indices":[1,3,10,1,2,0,7,0,6,0,0,7,0,6,17,10,13,13,0,0,0,1,14,7,0,0,0,0,0,0,0,0,0],"split_type":[0,0,0,0,0,0,0,0,0,0,0,0,0,0,0,0,0,0,0,0,0,0,0,0,0,0,0,0,0,0,0,0,0],"sum_hessian":[6.434538E1,3.5683567E1,2.866181E1,2.3146383E1,1.2537186E1,1.2692809E1,1.5969002E1,5.0927877E0,1.8053595E1,1.0577565E1,1.9596205E0,1.3016614E1,2.9523873E0,1.3167617E1,4.8859787E0,8.347246E0,4.669368E0,1.0543683E1,2.6239333E0,2.9470506E0,1.938928E0,2.321206E0,6.02604E0,2.4683218E0,2.2010462E0,7.62896E0,2.9147234E0,1.1604283E0,1.1607778E0,1.0920879E0,4.9339523E0,1.079646E0,1.3886757E0],"tree_param":{"num_deleted":"0","num_feature":"20","num_nodes":"33","size_leaf_vector":"1"}},{"base_weights":[1.0291398E-2,-4.8018113E-1,7.027555E-1,-1.555231E-1,-9.822806E-1,1.0399511E-1,3.5816756E-1,2.7940834E-1,-3.2337892E-1,-1.0412548E-1,-1.3684541E-2,7.408797E-1,-2.9465549E-2,8.019239E-1,-2.650495E-1,-4.6218008E-1,3.0913293E-1,4.92948E-3,9.73816E-2,5.090195E-1,-4.5888704E-1,1.0353183E-1,2.6734943E-2,-8.89517E-2,4.972285E-2,-6.4254836E-3,-6.3583744E-1,6.253148E-2,-2.7324399E-2,8.8905625E-2,-2.1996794E-2,-8.389024E-3,-1.1778444E-1,5.4562014E-2,-5.0902057E-2,-8.27735E-2,1.2085999E-2,-6.981168E-2,5.2857883E-2],"categories":[],"categories_nodes":[],"categories_segments":[],"categories_sizes":[],"default_left":[0,0,0,0,0,0,0,0,0,0,0,0,0,0,0,0,0,0,0,0,0,0,0,0,0,0,0,0,0,0,0,0,0,0,0,0,0,0,0],"id":18,"left_children":[1,3,5,7,9,-1,11,13,15,-1,-1,17,19,21,23,25,27,-1,-1,29,31,-1,-1,-1,-1,33,35,-1,-1,-1,-1,37,-1,-1,-1,-1,-1,-1,-1],"loss_changes":[2.2344553E1,6.127121E0,2.7963524E0,1.8851607E0,6.023979E-1,0E0,2.2491095E0,2.3127525E0,1.7408929E0,0E0,0E0,1.1751828E0,2.1807227E0,2.242117E-1,2.5210056E0,1.2089949E0,8.843481E-1,0E0,0E0,1.3618997E0,1.6777675E0,0E0,0E0,0E0,0E0,1.7313403E0,1.7101417E0,0E0,0E0,0E0,0E0,1.9284292E0,0E0,0E0,0E0,0E0,0E0,0E0,0E0],"parents":[2147483647,0,0,1,1,2,2,3,3,4,4,6,6,7,7,8,8,11,11,12,12,13,13,14,14,15,15,16,16,19,19,20,20,25,25,26,26,31,31],"right_children":[2,4,6,8,10,-1,12,14,16,-1,-1,18,20,22,24,26,28,-1,-1,30,32,-1,-1,-1,-1,34,36,-1,-1,-1,-1,38,-1,-1,-1,-1,-1,-1,-1],"split_conditions":[2.3559231E-2,1.0350569E-1,6.0200644E-1,7.554902E1,5.229026E-1,1.0399511E-1,6E0,4.9684164E-1,2.1E2,-1.0412548E-1,-1.3684541E-2,-7.1572885E-2,4.4579457E-2,9.8E1,1E0,7.793717E1,5.4617563E3,4.92948E-3,9.73816E-2,9.2071754E-1,4.3223614E-1,1.0353183E-1,2.6734943E-2,-8.89517E-2,4.972285E-2,1.97E2,-3.5704095E-3,6.253148E-2,-2.7324399E-2,8.8905625E-2,-2.1996794E-2,2.6999521E3,-1.1778444E-1,5.4562014E-2,-5.0902057E-2,-8.27735E-2,1.2085999E-2,-6.981168E-2,5.2857883E-2],"split_indices":[1,10,12,7,15,0,6,15,18,0,0,10,1,18,5,8,3,0,0,12,4,0,0,0,0,16,1,0,0,0,0,9,0,0,0,0,0,0,0],"split_type":[0,0,0,0,0,0,0,0,0,0,0,0,0,0,0,0,0,0,0,0,0,0,0,0,0,0,0,0,0,0,0,0,0,0,0,0,0,0,0],"sum_hessian":[6.3796402E1,3.7524414E1,2.627199E1,2.3584436E1,1.3939976E1,1.2258507E1,1.4013483E1,6.3824043E0,1.7202032E1,1.281447E1,1.1255052E0,6.592944E0,7.420539E0,3.0155241E0,3.3668802E0,1.4327285E1,2.874748E0,1.9663874E0,4.626557E0,3.2099597E0,4.2105794E0,1.4470359E0,1.5684882E0,1.7589816E0,1.6078985E0,4.23907E0,1.0088215E1,1.8154061E0,1.059342E0,1.9656483E0,1.2443115E0,3.2105315E0,1.0000478E0,1.9793572E0,2.2597125E0,7.9725156E0,2.1156993E0,1.2739943E0,1.936537E0],"tree_param":{"num_deleted":"0","num_feature":"20","num_nodes":"39","size_leaf_vector":"1"}},{"base_weights":[-1.882465E-2,3.8089332E-1,-7.343099E-1,1.01595044E-1,1.4957917E-1,-1.2773478E-1,-9.036276E-1,4.2716566E-1,-1.1710832E-1,5.1965423E-2,-5.0203085E-1,-9.90175E-1,-2.0110859E-3,-2.84487E-2,6.6802305E-1,-2.939347E-1,7.773074E-2,-7.8741305E-2,3.6419367E-3,-3.0910376E-2,-1.0337613E-1,5.816559E-1,-1.2060547E-1,8.567237E-1,-1.5523738E-2,2.1053923E-3,-7.3201525E-1,8.274127E-2,1.1768724E-2,5.8109746E-3,9.687484E-2,-5.323201E-2,6.263506E-2,-1.0378995E-1,1.1506971E-2],"categories":[],"categories_nodes":[],"categories_segments":[],"categories_sizes":[],"default_left":[0,0,0,0,0,0,0,0,0,0,0,0,0,0,0,0,0,0,0,0,0,0,0,0,0,0,0,0,0,0,0,0,0,0,0],"id":19,"left_children":[1,3,5,-1,7,9,11,13,15,-1,17,19,-1,21,23,25,-1,-1,-1,-1,-1,27,-1,29,-1,31,33,-1,-1,-1,-1,-1,-1,-1,-1],"loss_changes":[1.7752844E1,5.7028513E0,2.168725E0,0E0,2.2995927E0,1.719121E0,1.2970018E0,1.6765735E0,2.8037288E0,0E0,6.9279563E-1,1.4548016E-1,0E0,5.143594E0,1.6743774E0,1.8587962E0,0E0,0E0,0E0,0E0,0E0,4.4393492E-1,0E0,6.79574E-1,0E0,3.5170665E0,1.6165278E0,0E0,0E0,0E0,0E0,0E0,0E0,0E0,0E0],"parents":[2147483647,0,0,1,1,2,2,4,4,5,5,6,6,7,7,8,8,10,10,11,11,13,13,14,14,15,15,21,21,23,23,25,25,26,26],"right_children":[2,4,6,-1,8,10,12,14,16,-1,18,20,-1,22,24,26,-1,-1,-1,-1,-1,28,-1,30,-1,32,34,-1,-1,-1,-1,-1,-1,-1,-1],"split_conditions":[1.6408142E-2,-9.969321E-1,3E0,1.01595044E-1,4.978398E4,4.9250683E-1,5.8153594E-1,2.5288643E3,1.2318137E5,5.1965423E-2,2E1,4.572668E-1,-2.0110859E-3,2.1660447E3,1.9E2,2.7E1,7.773074E-2,-7.8741305E-2,3.6419367E-3,-3.0910376E-2,-1.0337613E-1,4.9417058E-1,-1.2060547E-1,4.8822507E-1,-1.5523738E-2,8E0,6.6E1,8.274127E-2,1.1768724E-2,5.8109746E-3,9.687484E-2,-5.323201E-2,6.263506E-2,-1.0378995E-1,1.1506971E-2],"split_indices":[10,10,0,0,13,15,15,9,14,0,6,15,0,9,18,5,0,0,0,0,0,15,0,15,0,5,5,0,0,0,0,0,0,0,0],"split_type":[0,0,0,0,0,0,0,0,0,0,0,0,0,0,0,0,0,0,0,0,0,0,0,0,0,0,0,0,0,0,0,0,0,0,0],"sum_hessian":[6.0096573E1,3.885642E1,2.1240154E1,9.468693E0,2.9387726E1,5.017943E0,1.622221E1,1.4104773E1,1.5282952E1,1.696059E0,3.3218837E0,1.4664944E1,1.5572668E0,5.182762E0,8.92201E0,1.3320793E1,1.96216E0,1.8689554E0,1.4529284E0,1.3687578E0,1.3296186E1,3.7473636E0,1.4353985E0,7.2252526E0,1.6967577E0,8.54295E0,4.7778435E0,1.9376723E0,1.8096914E0,1.0756639E0,6.149589E0,4.6819344E0,3.861015E0,3.344777E0,1.4330662E0],"tree_param":{"num_deleted":"0","num_feature":"20","num_nodes":"35","size_leaf_vector":"1"}},{"base_weights":[-6.855487E-3,4.214426E-1,-7.833214E-1,1.6897176E-1,9.365611E-2,-9.227266E-1,2.4128985E-1,-6.927102E-2,2.9148626E-1,-1.03122465E-1,-4.996568E-1,6.460917E-2,-3.445995E-2,-6.0134187E-2,4.930725E-1,-8.501776E-2,3.2114256E-2,3.5535085E-1,-9.4111525E-2,6.7040944E-1,-1.3268445E-1,2.832332E-2,-2.1777079E-2,9.246517E-2,-1.8172791E-2,-4.9104965E-3,7.648184E-2,4.3474372E-2,-5.6474406E-2],"categories":[],"categories_nodes":[],"categories_segments":[],"categories_sizes":[],"default_left":[0,0,0,0,0,0,0,0,0,0,0,0,0,0,0,0,0,0,0,0,0,0,0,0,0,0,0,0,0],"id":20,"left_children":[1,3,5,7,-1,9,11,-1,13,-1,15,-1,-1,17,19,-1,21,23,-1,25,27,-1,-1,-1,-1,-1,-1,-1,-1],"loss_changes":[2.001246E1,4.8870487E0,3.2779255E0,3.0791335E0,0E0,3.5852242E-1,1.0182117E0,0E0,1.7709091E0,0E0,1.1131268E0,0E0,0E0,3.9372733E0,1.8337011E0,0E0,2.67372E-1,2.4350624E0,0E0,8.809643E-1,1.3013448E0,0E0,0E0,0E0,0E0,0E0,0E0,0E0,0E0],"parents":[2147483647,0,0,1,1,2,2,3,3,5,5,6,6,8,8,10,10,13,13,14,14,16,16,17,17,19,19,20,20],"right_children":[2,4,6,8,-1,10,12,-1,14,-1,16,-1,-1,18,20,-1,22,24,-1,26,28,-1,-1,-1,-1,-1,-1,-1,-1],"split_conditions":[1.6408142E-2,6.911317E-2,7.6725557E-3,-5.6196827E-2,9.365611E-2,8.7067026E-1,2E1,-6.927102E-2,2.5288643E3,-1.03122465E-1,4.4557333E-2,6.460917E-2,-3.445995E-2,1.42E2,9.210802E3,-8.501776E-2,1.15E2,4.946418E-1,-9.4111525E-2,-2.3804012E-1,-1.1261718E-1,2.832332E-2,-2.1777079E-2,9.246517E-2,-1.8172791E-2,-4.9104965E-3,7.648184E-2,4.3474372E-2,-5.6474406E-2],"split_indices":[10,1,1,1,0,12,5,0,9,0,10,0,0,18,9,0,18,15,0,10,10,0,0,0,0,0,0,0,0],"split_type":[0,0,0,0,0,0,0,0,0,0,0,0,0,0,0,0,0,0,0,0,0,0,0,0,0,0,0,0,0],"sum_hessian":[5.8184513E1,3.7794384E1,2.0390127E1,2.6254501E1,1.1539883E1,1.803569E1,2.3544378E0,2.688855E0,2.3565647E1,1.3210356E1,4.8253345E0,1.3316336E0,1.0228043E0,8.842919E0,1.4722728E1,2.5474184E0,2.2779162E0,6.4144173E0,2.4285018E0,1.1416096E1,3.306632E0,1.0695903E0,1.2083259E0,2.7634947E0,3.6509223E0,1.3798414E0,1.0036254E1,1.4267088E0,1.8799232E0],"tree_param":{"num_deleted":"0","num_feature":"20","num_nodes":"29","size_leaf_vector":"1"}},{"base_weights":[-2.2132967E-2,-3.9688763E-1,5.762853E-1,-1.5714024E-1,-8.698617E-1,9.7089775E-2,2.7498436E-1,2.1697845E-1,-4.2506918E-1,-2.3344126E-1,-9.8051205E-2,-6.35495E-2,5.166625E-1,7.604881E-1,-3.1727418E-1,-7.5306153E-1,1.115165E-2,-5.6288876E-2,2.1349613E-2,-3.718442E-1,6.906437E-2,7.0132345E-1,2.6509244E-2,1.2551801E-1,-2.2646924E-2,-7.7369297E-1,1.5976678E-1,6.9270455E-3,-9.837895E-2,-4.506404E-1,4.4937277E-1,-8.1328654E-1,1.5236877E-1,8.133846E-1,7.41148E-3,-5.1059138E-2,5.8736354E-2,-5.8928866E-2,5.89808E-2,-1.2141383E-2,-1.003683E-1,-6.521419E-2,7.708894E-2,-7.4959095E-3,-6.593674E-2,8.905533E-2,-4.268681E-3,-1.7571999E-2,-1.0675831E-1,-5.8050532E-2,7.337313E-2,2.3041857E-2,9.012419E-2],"categories":[],"categories_nodes":[],"categories_segments":[],"categories_sizes":[],"default_left":[0,0,0,0,0,0,0,0,0,0,0,0,0,0,0,0,0,0,0,0,0,0,0,0,0,0,0,0,0,0,0,0,0,0,0,0,0,0,0,0,0,0,0,0,0,0,0,0,0,0,0,0,0],"id":21,"left_children":[1,3,5,7,9,-1,11,13,15,17,-1,19,21,23,25,27,29,-1,-1,31,-1,33,35,-1,37,39,41,-1,-1,43,45,47,49,51,-1,-1,-1,-1,-1,-1,-1,-1,-1,-1,-1,-1,-1,-1,-1,-1,-1,-1,-1],"loss_changes":[1.3140855E1,3.9451513E0,2.4176831E0,2.6090488E0,6.082802E-1,0E0,1.1945269E0,3.4760141E0,2.1500673E0,5.7269037E-1,0E0,1.8390131E0,7.4117255E-1,2.2818112E0,1.5004176E0,1.692061E0,1.7020035E0,0E0,0E0,1.392114E0,0E0,3.6548972E-1,1.3049113E0,0E0,1.4699237E0,3.8860846E-1,2.4480944E0,0E0,0E0,2.7263677E-1,9.7206026E-1,3.2032943E-1,1.8521855E0,5.0436497E-2,0E0,0E0,0E0,0E0,0E0,0E0,0E0,0E0,0E0,0E0,0E0,0E0,0E0,0E0,0E0,0E0,0E0,0E0,0E0],"parents":[2147483647,0,0,1,1,2,2,3,3,4,4,6,6,7,7,8,8,9,9,11,11,12,12,13,13,14,14,15,15,16,16,19,19,21,21,22,22,24,24,25,25,26,26,29,29,30,30,31,31,32,32,33,33],"right_children":[2,4,6,8,10,-1,12,14,16,18,-1,20,22,24,26,28,30,-1,-1,32,-1,34,36,-1,38,40,42,-1,-1,44,46,48,50,52,-1,-1,-1,-1,-1,-1,-1,-1,-1,-1,-1,-1,-1,-1,-1,-1,-1,-1,-1],"split_conditions":[2.8176524E-2,1.9610669E-1,-3.5744148E-1,4.9726653E-1,6.577181E-1,9.7089775E-2,1.11E2,1.19E2,8E0,3.95E2,-9.8051205E-2,9.252301E-1,9.3675625E-1,5E0,7.841446E1,2.08E2,5.062941E-1,-5.6288876E-2,2.1349613E-2,4.9628085E-1,6.906437E-2,1.2900743E-1,8.196886E1,1.2551801E-1,1.9982513E3,7.5750755E1,-2.4555355E-2,6.9270455E-3,-9.837895E-2,7.985494E1,1.3562869E3,4.8887548E-1,-9.658808E-2,-7.624292E-2,7.41148E-3,-5.1059138E-2,5.8736354E-2,-5.8928866E-2,5.89808E-2,-1.2141383E-2,-1.003683E-1,-6.521419E-2,7.708894E-2,-7.4959095E-3,-6.593674E-2,8.905533E-2,-4.268681E-3,-1.7571999E-2,-1.0675831E-1,-5.8050532E-2,7.337313E-2,2.3041857E-2,9.012419E-2],"split_indices":[1,10,10,15,11,0,18,19,5,17,0,12,12,6,8,16,15,0,0,15,0,1,7,0,3,8,1,0,0,8,2,15,10,10,0,0,0,0,0,0,0,0,0,0,0,0,0,0,0,0,0,0,0],"split_type":[0,0,0,0,0,0,0,0,0,0,0,0,0,0,0,0,0,0,0,0,0,0,0,0,0,0,0,0,0,0,0,0,0,0,0,0,0,0,0,0,0,0,0,0,0,0,0,0,0,0,0,0,0],"sum_hessian":[5.657662E1,3.4996876E1,2.157974E1,2.4108618E1,1.0888257E1,8.380927E0,1.3198813E1,1.0139976E1,1.3968643E1,2.0732708E0,8.814986E0,5.804763E0,7.3940506E0,4.816529E0,5.3234468E0,7.5588493E0,6.4097934E0,1.0441612E0,1.0291097E0,4.4802976E0,1.3244656E0,5.057759E0,2.3362916E0,2.582468E0,2.2340605E0,2.402728E0,2.9207184E0,1.8094844E0,5.749365E0,3.1071627E0,3.3026304E0,2.132807E0,2.3474903E0,4.0392485E0,1.0185107E0,1.2391967E0,1.0970949E0,1.1800793E0,1.0539813E0,1.024639E0,1.3780892E0,1.2254809E0,1.6952376E0,1.5951772E0,1.5119857E0,1.3143426E0,1.9882878E0,1.0902817E0,1.0425253E0,1.0390825E0,1.3084078E0,1.0034733E0,3.035775E0],"tree_param":{"num_deleted":"0","num_feature":"20","num_nodes":"53","size_leaf_vector":"1"}},{"base_weights":[2.2753445E-2,4.5168144E-1,-5.773421E-1,4.8273943E-2,7.4630666E-1,-8.929206E-1,-2.1350987E-1,1.9500081E-1,-5.5736387E-1,1.1500567E-3,8.186657E-1,-9.764776E-2,-4.125336E-1,-7.4987394E-1,3.482162E-1,7.172672E-1,-6.970329E-2,-1.7603789E-2,-6.726647E-2,9.899038E-2,5.025501E-1,6.8090605E-3,-6.405201E-2,-1.4204517E-2,-9.983951E-2,9.244634E-2,-1.1881558E-1,9.545379E-2,9.853899E-3,-9.0013355E-2,2.7114278E-1,-3.9509006E-2,7.386108E-1,-5.4082656E-1,5.649517E-2,5.4563016E-2,-5.2967805E-2,9.472045E-2,1.0924464E-3,-6.6617005E-2,-1.2855226E-2],"categories":[],"categories_nodes":[],"categories_segments":[],"categories_sizes":[],"default_left":[0,0,0,0,0,0,0,0,0,0,0,0,0,0,0,0,0,0,0,0,0,0,0,0,0,0,0,0,0,0,0,0,0,0,0,0,0,0,0,0,0],"id":22,"left_children":[1,3,5,7,9,11,13,15,17,-1,19,-1,21,23,25,27,29,-1,-1,-1,31,-1,-1,-1,-1,-1,33,-1,-1,-1,35,-1,37,39,-1,-1,-1,-1,-1,-1,-1],"loss_changes":[1.4115222E1,3.761382E0,2.4357882E0,1.402064E0,9.686718E-1,7.625675E-2,3.8583245E0,1.7721311E0,1.7780662E-2,0E0,4.0825462E-1,0E0,4.2712218E-1,8.2868266E-1,1.8631122E0,5.3406477E-1,2.8420095E0,0E0,0E0,0E0,1.9679824E0,0E0,0E0,0E0,0E0,0E0,1.5995629E0,0E0,0E0,0E0,1.8883791E0,0E0,9.932432E-1,8.4061265E-2,0E0,0E0,0E0,0E0,0E0,0E0,0E0],"parents":[2147483647,0,0,1,1,2,2,3,3,4,4,5,5,6,6,7,7,8,8,10,10,12,12,13,13,14,14,15,15,16,16,20,20,26,26,30,30,32,32,33,33],"right_children":[2,4,6,8,10,12,14,16,18,-1,20,-1,22,24,26,28,30,-1,-1,-1,32,-1,-1,-1,-1,-1,34,-1,-1,-1,36,-1,38,40,-1,-1,-1,-1,-1,-1,-1],"split_conditions":[4.061694E-3,2.3559231E-2,8.207865E-1,9.238002E4,-1.710165E-1,4.14E2,4.343531E-2,7.388281E2,1.21E2,1.1500567E-3,-1.3085055E-1,-9.764776E-2,1.29E2,1.4917782E-2,7.730402E1,1.42E2,-4.0682203E-1,-1.7603789E-2,-6.726647E-2,9.899038E-2,3.4E1,6.8090605E-3,-6.405201E-2,-1.4204517E-2,-9.983951E-2,9.244634E-2,2.9E1,9.545379E-2,9.853899E-3,-9.0013355E-2,6.0696745E-1,-3.9509006E-2,5.077182E4,3.1404421E3,5.649517E-2,5.4563016E-2,-5.2967805E-2,9.472045E-2,1.0924464E-3,-6.6617005E-2,-1.2855226E-2],"split_indices":[10,1,12,13,4,16,10,2,18,0,10,0,19,10,8,18,4,0,0,0,2,0,0,0,0,0,6,0,0,0,4,0,13,9,0,0,0,0,0,0,0],"split_type":[0,0,0,0,0,0,0,0,0,0,0,0,0,0,0,0,0,0,0,0,0,0,0,0,0,0,0,0,0,0,0,0,0,0,0,0,0,0,0,0,0],"sum_hessian":[5.282505E1,3.0950205E1,2.1874844E1,1.3554681E1,1.7395525E1,1.0935482E1,1.0939362E1,1.1457029E1,2.0976515E0,1.6633307E0,1.5732194E1,8.435542E0,2.4999397E0,5.42467E0,5.5146914E0,3.2785974E0,8.1784315E0,1.0736427E0,1.0240088E0,8.821937E0,6.910258E0,1.0299708E0,1.4699689E0,2.0303748E0,3.3942952E0,2.030238E0,3.4844534E0,1.9775155E0,1.3010819E0,1.9024537E0,6.275978E0,1.2985886E0,5.611669E0,2.2839081E0,1.2005453E0,4.911266E0,1.3647121E0,4.126988E0,1.484681E0,1.2791634E0,1.0047448E0],"tree_param":{"num_deleted":"0","num_feature":"20","num_nodes":"41","size_leaf_vector":"1"}},{"base_weights":[9.944303E-4,-3.4151196E-1,6.089301E-1,-7.233085E-1,-8.374096E-2,-1.638893E-1,7.657362E-1,-1.4333652E-1,-8.558251E-1,2.6821277E-1,-3.354101E-1,-5.1726755E-2,2.4814695E-2,9.0223E-1,3.183557E-1,-7.24194E-2,6.646802E-2,-9.1084754E-1,-2.6169563E-2,9.483042E-2,3.7955903E-2,-8.557621E-1,-2.9209962E-2,9.5509626E-2,1.927664E-2,-5.0699454E-2,6.4086527E-1,-1.9316496E-2,-9.705957E-2,5.2063006E-1,-2.983572E-1,-2.4165772E-2,-9.8567985E-2,5.5596495E-1,-4.3364096E-1,7.981271E-2,6.7884363E-3,7.6822706E-2,-5.1325536E-3,-7.4915655E-2,1.4457822E-2,6.955942E-2,6.2507996E-3,2.3530103E-2,-6.863188E-2],"categories":[],"categories_nodes":[],"categories_segments":[],"categories_sizes":[],"default_left":[0,0,0,0,0,0,0,0,0,0,0,0,0,0,0,0,0,0,0,0,0,0,0,0,0,0,0,0,0,0,0,0,0,0,0,0,0,0,0,0,0,0,0,0,0],"id":23,"left_children":[1,3,5,7,9,11,13,15,17,19,21,-1,-1,23,25,-1,-1,27,-1,-1,29,31,33,-1,-1,-1,35,-1,-1,37,39,-1,-1,41,43,-1,-1,-1,-1,-1,-1,-1,-1,-1,-1],"loss_changes":[1.1392698E1,3.3838916E0,2.5147996E0,9.5139456E-1,2.0407515E0,7.3253334E-1,7.2443485E-1,2.265052E0,1.2693787E-1,1.4889555E0,2.091856E0,0E0,0E0,2.7155495E-1,1.7671452E0,0E0,0E0,2.3378372E-1,0E0,0E0,1.5053855E0,1.5165901E-1,2.4655688E0,0E0,0E0,0E0,3.3666694E-1,0E0,0E0,5.7466507E-1,1.2139531E0,0E0,0E0,2.513826E-1,1.1959091E0,0E0,0E0,0E0,0E0,0E0,0E0,0E0,0E0,0E0,0E0],"parents":[2147483647,0,0,1,1,2,2,3,3,4,4,5,5,6,6,7,7,8,8,9,9,10,10,13,13,14,14,17,17,20,20,21,21,22,22,26,26,29,29,30,30,33,33,34,34],"right_children":[2,4,6,8,10,12,14,16,18,20,22,-1,-1,24,26,-1,-1,28,-1,-1,30,32,34,-1,-1,-1,36,-1,-1,38,40,-1,-1,42,44,-1,-1,-1,-1,-1,-1,-1,-1,-1,-1],"split_conditions":[2.8176524E-2,-5.4986324E-2,-3.8965486E-2,2.08E2,4.9726653E-1,2.14E2,8E0,1.92E2,-6.368575E-2,8.6E1,2.5054595E3,-5.1726755E-2,2.4814695E-2,8.139343E1,9E0,-7.24194E-2,6.646802E-2,9.4E1,-2.6169563E-2,9.483042E-2,7.58835E1,5.9E1,4.161912E3,9.5509626E-2,1.927664E-2,-5.0699454E-2,1.2177978E-1,-1.9316496E-2,-9.705957E-2,3.82E2,3.1752693E3,-2.4165772E-2,-9.8567985E-2,4E0,2.2E2,7.981271E-2,6.7884363E-3,7.6822706E-2,-5.1325536E-3,-7.4915655E-2,1.4457822E-2,6.955942E-2,6.2507996E-3,2.3530103E-2,-6.863188E-2],"split_indices":[1,1,4,16,15,16,6,16,1,19,9,0,0,8,6,0,0,19,0,0,7,18,9,0,0,0,1,0,0,16,2,0,0,0,16,0,0,0,0,0,0,0,0,0,0],"split_type":[0,0,0,0,0,0,0,0,0,0,0,0,0,0,0,0,0,0,0,0,0,0,0,0,0,0,0,0,0,0,0,0,0,0,0,0,0,0,0,0,0,0,0,0,0],"sum_hessian":[5.2715504E1,3.3998978E1,1.8716526E1,1.2975039E1,2.102394E1,3.1494212E0,1.5567104E1,2.8004122E0,1.0174626E1,8.738127E0,1.2285812E1,1.5579069E0,1.5915143E0,1.1148923E1,4.418182E0,1.6895717E0,1.1108404E0,8.824326E0,1.3503009E0,1.421397E0,7.3167305E0,3.8864524E0,8.399361E0,1.0053552E1,1.0953711E0,1.0806379E0,3.337544E0,1.0034982E0,7.8208275E0,2.7795248E0,4.5372057E0,1.1780487E0,2.7084038E0,3.2795153E0,5.119845E0,2.3104684E0,1.0270756E0,1.7003098E0,1.079215E0,1.9060106E0,2.6311948E0,2.2369187E0,1.0425966E0,1.4225475E0,3.6972976E0],"tree_param":{"num_deleted":"0","num_feature":"20","num_nodes":"45","size_leaf_vector":"1"}},{"base_weights":[-3.5132006E-2,-3.747484E-1,5.1166475E-1,-3.4313723E-2,-6.5956396E-1,9.456976E-2,2.0839661E-1,5.244474E-1,-2.738666E-1,-9.324797E-2,-4.0617284E-1,-2.2180606E-1,4.568237E-1,8.182239E-2,-2.2962222E-2,-5.7728916E-1,8.134998E-2,2.7312981E-2,-7.3379683E-1,4.3951765E-2,-5.422056E-1,7.029088E-1,-1.1467471E-1,-7.2643965E-1,1.0797068E-2,-6.590042E-2,3.9755964E-1,-5.0270194E-1,5.069952E-1,1.7329467E-2,-9.464394E-2,-1.1273058E-1,2.0972624E-2,9.1433726E-2,9.490223E-3,-7.823228E-2,4.776356E-2,-8.926311E-2,-4.6731235E-4,6.970056E-2,-1.9166572E-2,-6.178086E-2,-1.3006148E-2,-2.2097142E-2,1.02660455E-1],"categories":[],"categories_nodes":[],"categories_segments":[],"categories_sizes":[],"default_left":[0,0,0,0,0,0,0,0,0,0,0,0,0,0,0,0,0,0,0,0,0,0,0,0,0,0,0,0,0,0,0,0,0,0,0,0,0,0,0,0,0,0,0,0,0],"id":24,"left_children":[1,3,5,7,9,-1,11,13,15,-1,17,19,21,-1,-1,23,25,27,29,-1,31,33,35,37,-1,-1,39,41,43,-1,-1,-1,-1,-1,-1,-1,-1,-1,-1,-1,-1,-1,-1,-1,-1],"loss_changes":[9.7444935E0,3.1101484E0,2.4528403E0,2.254844E0,8.340144E-1,0E0,1.50499E0,1.3123614E0,1.3076353E0,0E0,1.563169E0,1.3996816E0,1.2975041E0,0E0,0E0,7.358017E-1,1.728654E0,1.6890905E0,1.3645935E0,0E0,2.057818E0,7.0877266E-1,1.7435744E0,6.4494157E-1,0E0,0E0,1.018209E0,5.6139767E-2,1.5352843E0,0E0,0E0,0E0,0E0,0E0,0E0,0E0,0E0,0E0,0E0,0E0,0E0,0E0,0E0,0E0,0E0],"parents":[2147483647,0,0,1,1,2,2,3,3,4,4,6,6,7,7,8,8,10,10,11,11,12,12,15,15,16,16,17,17,18,18,20,20,21,21,22,22,23,23,26,26,27,27,28,28],"right_children":[2,4,6,8,10,-1,12,14,16,-1,18,20,22,-1,-1,24,26,28,30,-1,32,34,36,38,-1,-1,40,42,44,-1,-1,-1,-1,-1,-1,-1,-1,-1,-1,-1,-1,-1,-1,-1,-1],"split_conditions":[2.3559231E-2,1.3592497E-2,4.646401E-1,8.9E1,1.5363154E-3,9.456976E-2,9.4E1,8.017203E1,7.872345E1,-9.324797E-2,-5.18538E-2,5.1E1,9.396537E-1,8.182239E-2,-2.2962222E-2,-1.2157413E-2,-5.6196827E-2,4.6356918E4,4.8794892E-1,4.3951765E-2,9E0,8.172906E1,8.048579E1,3.86E2,1.0797068E-2,-6.590042E-2,7.1786664E4,2.0138127E3,-6.502428E-2,1.7329467E-2,-9.464394E-2,-1.1273058E-1,2.0972624E-2,9.1433726E-2,9.490223E-3,-7.823228E-2,4.776356E-2,-8.926311E-2,-4.6731235E-4,6.970056E-2,-1.9166572E-2,-6.178086E-2,-1.3006148E-2,-2.2097142E-2,1.02660455E-1],"split_indices":[1,10,12,18,12,0,19,8,8,0,1,19,12,0,0,10,1,13,15,0,6,7,7,16,0,0,14,3,1,0,0,0,0,0,0,0,0,0,0,0,0,0,0,0,0],"split_type":[0,0,0,0,0,0,0,0,0,0,0,0,0,0,0,0,0,0,0,0,0,0,0,0,0,0,0,0,0,0,0,0,0,0,0,0,0,0,0,0,0,0,0,0,0],"sum_hessian":[5.044151E1,3.130967E1,1.9131842E1,1.4772661E1,1.6537008E1,6.9980226E0,1.213382E1,4.0760136E0,1.0696648E1,6.6714735E0,9.865535E0,4.4810743E0,7.652745E0,2.8720284E0,1.2039855E0,5.431736E0,5.264911E0,4.6412444E0,5.22429E0,1.3411274E0,3.139947E0,5.188609E0,2.464136E0,4.4114633E0,1.0202727E0,1.2512461E0,4.013665E0,2.1821423E0,2.4591024E0,1.0272571E0,4.197033E0,1.4851193E0,1.6548276E0,3.476026E0,1.712583E0,1.0075892E0,1.4565465E0,3.3933833E0,1.0180799E0,2.5399413E0,1.4737241E0,1.1645101E0,1.0176321E0,1.2635788E0,1.1955236E0],"tree_param":{"num_deleted":"0","num_feature":"20","num_nodes":"45","size_leaf_vector":"1"}},{"base_weights":[-5.2878413E-2,-4.763482E-1,3.6267275E-1,-7.237494E-1,1.5873475E-1,9.1990136E-2,1.2783395E-1,-7.770508E-1,-8.196906E-3,6.1895454E-1,-1.3809691E-1,-3.7524267E-3,8.2815334E-2,-4.2558435E-1,-9.646826E-2,1.5695546E-2,7.7769995E-2,5.3828295E-2,-5.514234E-1,1.5971322E-1,-7.143839E-1,-8.3670336E-1,3.513261E-1,-8.064692E-2,9.21637E-3,-1.4350256E-1,4.7929293E-1,-1.0039946E-1,-3.124927E-3,-1.7941525E-2,-9.49144E-2,9.103175E-2,-3.0790968E-2,1.9671952E-2,-4.490732E-2,8.551587E-2,-1.5616265E-2],"categories":[],"categories_nodes":[],"categories_segments":[],"categories_sizes":[],"default_left":[0,0,0,0,0,0,0,0,0,0,0,0,0,0,0,0,0,0,0,0,0,0,0,0,0,0,0,0,0,0,0,0,0,0,0,0,0],"id":25,"left_children":[1,3,5,7,9,-1,11,13,-1,15,17,19,-1,21,-1,-1,-1,-1,23,25,27,29,31,-1,-1,33,35,-1,-1,-1,-1,-1,-1,-1,-1,-1,-1],"loss_changes":[8.943289E0,4.0612926E0,3.2484872E0,5.6078625E-1,1.1594343E0,0E0,1.7777632E0,6.9323444E-1,0E0,1.1738217E-1,1.861481E0,2.112952E0,0E0,2.7261891E0,0E0,0E0,0E0,0E0,7.256298E-1,1.5035588E0,6.414211E-1,2.1959996E-1,1.5109026E0,0E0,0E0,9.582301E-1,1.9103606E0,0E0,0E0,0E0,0E0,0E0,0E0,0E0,0E0,0E0,0E0],"parents":[2147483647,0,0,1,1,2,2,3,3,4,4,6,6,7,7,9,9,10,10,11,11,13,13,18,18,19,19,20,20,21,21,22,22,25,25,26,26],"right_children":[2,4,6,8,10,-1,12,14,-1,16,18,20,-1,22,-1,-1,-1,-1,24,26,28,30,32,-1,-1,34,36,-1,-1,-1,-1,-1,-1,-1,-1,-1,-1],"split_conditions":[1.4917543E-3,9.517135E-1,-3.5744148E-1,5E0,2.03E2,9.1990136E-2,4.49E2,4E0,-8.196906E-3,2.9416826E4,5.0032264E-1,3.62E2,8.2815334E-2,4.6356918E4,-9.646826E-2,1.5695546E-2,7.7769995E-2,5.3828295E-2,8E0,2.19E2,-8.1942014E-2,7.555951E1,4.7941875E4,-8.064692E-2,9.21637E-3,4.948145E-1,2.3928206E3,-1.0039946E-1,-3.124927E-3,-1.7941525E-2,-9.49144E-2,9.103175E-2,-3.0790968E-2,1.9671952E-2,-4.490732E-2,8.551587E-2,-1.5616265E-2],"split_indices":[1,12,10,0,17,0,16,0,0,13,15,16,0,13,0,0,0,0,5,16,10,7,13,0,0,15,3,0,0,0,0,0,0,0,0,0,0],"split_type":[0,0,0,0,0,0,0,0,0,0,0,0,0,0,0,0,0,0,0,0,0,0,0,0,0,0,0,0,0,0,0,0,0,0,0,0,0],"sum_hessian":[4.8840107E1,2.4117117E1,2.472299E1,1.7255497E1,6.8616195E0,6.465176E0,1.8257814E1,1.5737673E1,1.5178239E0,2.26487E0,4.59675E0,1.6207207E1,2.0506082E0,6.6149445E0,9.122728E0,1.0877881E0,1.1770818E0,1.628881E0,2.9678686E0,1.3806554E1,2.4006522E0,4.2755055E0,2.339439E0,1.9442867E0,1.023582E0,7.3673806E0,6.439173E0,1.3560681E0,1.0445842E0,1.0037256E0,3.2717798E0,1.0598682E0,1.2795708E0,3.654588E0,3.7127926E0,3.8287587E0,2.6104145E0],"tree_param":{"num_deleted":"0","num_feature":"20","num_nodes":"37","size_leaf_vector":"1"}},{"base_weights":[6.53854E-2,-2.339701E-1,5.7793874E-1,-8.966312E-2,-6.4703874E-2,2.550645E-1,8.600295E-1,1.4995529E-1,-4.8635292E-1,4.4161725E-1,-6.0201574E-2,9.5777385E-2,7.3180273E-3,-5.9245344E-2,5.9641266E-1,-5.3293657E-2,-8.130306E-2,-3.4859974E-2,6.706797E-1,2.5380787E-1,-4.1279626E-1,8.166826E-1,-1.5342787E-2,-7.595197E-2,4.6387947E-1,4.3428343E-2,-4.946969E-2,8.4558E-2,2.5694406E-1,5.988366E-2,-2.4207983E-2,3.060751E-2,-6.328555E-2,1.0774028E-1,2.7009249E-2,5.0480585E-3,7.1409985E-2,-2.1858398E-2,5.9361834E-2],"categories":[],"categories_nodes":[],"categories_segments":[],"categories_sizes":[],"default_left":[0,0,0,0,0,0,0,0,0,0,0,0,0,0,0,0,0,0,0,0,0,0,0,0,0,0,0,0,0,0,0,0,0,0,0,0,0,0,0],"id":26,"left_children":[1,3,5,-1,7,9,11,13,15,17,-1,-1,-1,19,21,23,-1,25,27,29,31,33,-1,-1,35,-1,-1,-1,37,-1,-1,-1,-1,-1,-1,-1,-1,-1,-1],"loss_changes":[7.064938E0,3.2198594E0,1.323555E0,0E0,2.277349E0,1.7561615E0,5.9283876E-1,1.6140933E0,1.1523743E0,9.2178845E-1,0E0,0E0,0E0,1.47938E0,1.031031E0,2.0705595E0,0E0,9.964364E-1,1.8857384E-1,1.3779376E0,1.176611E0,3.3556962E-1,0E0,0E0,3.090824E-1,0E0,0E0,0E0,6.2652874E-1,0E0,0E0,0E0,0E0,0E0,0E0,0E0,0E0,0E0,0E0],"parents":[2147483647,0,0,1,1,2,2,4,4,5,5,6,6,7,7,8,8,9,9,13,13,14,14,15,15,17,17,18,18,19,19,20,20,21,21,24,24,28,28],"right_children":[2,4,6,-1,8,10,12,14,16,18,-1,-1,-1,20,22,24,-1,26,28,30,32,34,-1,-1,36,-1,-1,-1,38,-1,-1,-1,-1,-1,-1,-1,-1,-1,-1],"split_conditions":[2.9304177E-2,-1.1712822E-1,8.048579E1,-8.966312E-2,2.705837E3,7.935212E1,5.074124E-1,1.7588268E3,4E0,2.14E2,-6.0201574E-2,9.5777385E-2,7.3180273E-3,4.970069E-1,5.496764E4,5.9214365E3,-8.130306E-2,1.96E2,9.811145E4,1.18E2,-6.424122E-2,1.36E2,-1.5342787E-2,-7.595197E-2,5.0780237E-1,4.3428343E-2,-4.946969E-2,8.4558E-2,1.13348664E5,5.988366E-2,-2.4207983E-2,3.060751E-2,-6.328555E-2,1.0774028E-1,2.7009249E-2,5.0480585E-3,7.1409985E-2,-2.1858398E-2,5.9361834E-2],"split_indices":[1,1,7,0,3,7,15,3,0,16,0,0,0,15,14,9,0,16,13,19,1,19,0,0,15,0,0,0,13,0,0,0,0,0,0,0,0,0,0],"split_type":[0,0,0,0,0,0,0,0,0,0,0,0,0,0,0,0,0,0,0,0,0,0,0,0,0,0,0,0,0,0,0,0,0,0,0,0,0,0,0],"sum_hessian":[4.416367E1,2.822339E1,1.5940282E1,4.8680954E0,2.3355295E1,8.320749E0,7.6195326E0,1.5903349E1,7.451946E0,7.231481E0,1.0892678E0,6.5843782E0,1.0351546E0,1.14196415E1,4.4837074E0,3.7043822E0,3.7475638E0,2.6230462E0,4.608435E0,6.2063336E0,5.213308E0,3.3967507E0,1.0869566E0,1.3678776E0,2.3365045E0,1.3258913E0,1.2971548E0,2.5055037E0,2.1029313E0,3.5374448E0,2.6688886E0,1.130244E0,4.0830636E0,1.6422652E0,1.7544855E0,1.3341113E0,1.0023932E0,1.0171027E0,1.0858285E0],"tree_param":{"num_deleted":"0","num_feature":"20","num_nodes":"39","size_leaf_vector":"1"}},{"base_weights":[-8.3507184E-4,8.715477E-2,-1.4401633E-1,-5.6809573E-3,-8.962344E-2,4.8258554E-2,-6.8855144E-2,1.4419031E-1,-2.6344723E-1,2.2497697E-1,-6.7287974E-2,-5.7434034E-1,5.3619694E-2,-3.3500988E-2,3.4137584E-2,-9.1867186E-2,-1.4849536E-2],"categories":[],"categories_nodes":[],"categories_segments":[],"categories_sizes":[],"default_left":[0,0,0,0,0,0,0,0,0,0,0,0,0,0,0,0,0],"id":27,"left_children":[1,-1,3,5,-1,7,-1,9,11,13,-1,15,-1,-1,-1,-1,-1],"loss_changes":[6.103339E0,0E0,4.362069E0,1.376021E0,0E0,1.076238E0,0E0,1.9465705E0,2.4272778E0,1.7764194E0,0E0,8.344574E-1,0E0,0E0,0E0,0E0,0E0],"parents":[2147483647,0,0,2,2,3,3,5,5,7,7,8,8,9,9,11,11],"right_children":[2,-1,4,6,-1,8,-1,10,12,14,-1,16,-1,-1,-1,-1,-1],"split_conditions":[-5.6320626E-1,8.715477E-2,6.577181E-1,8.698804E1,-8.962344E-2,1.7E2,-6.8855144E-2,7.382606E-1,6.831161E-1,2.8654969E4,-6.7287974E-2,2.31E2,5.3619694E-2,-3.3500988E-2,3.4137584E-2,-9.1867186E-2,-1.4849536E-2],"split_indices":[10,0,11,8,0,19,0,4,4,13,0,17,0,0,0,0,0],"split_type":[0,0,0,0,0,0,0,0,0,0,0,0,0,0,0,0,0],"sum_hessian":[4.685747E1,5.889087E0,4.0968384E1,3.5455544E1,5.5128393E0,3.3721252E1,1.7342908E0,2.6196373E1,7.52488E0,2.4498749E1,1.6976254E0,5.62118E0,1.9036999E0,3.8927722E0,2.0605976E1,2.4681675E0,3.1530123E0],"tree_param":{"num_deleted":"0","num_feature":"20","num_nodes":"17","size_leaf_vector":"1"}},{"base_weights":[1.5481335E-2,-2.769263E-1,6.302823E-1,-6.0981445E-2,-9.179672E-2,8.334695E-2,2.1506499E-1,7.886488E-2,-7.40347E-1,-3.901879E-2,5.599196E-1,5.6224877E-1,-1.4632022E-1,-9.425789E-2,-9.480144E-3,7.6298766E-2,2.6996183E-4,8.4482884E-1,-2.7426226E-2,-2.5435808E-1,6.456592E-2,2.2705317E-2,9.656872E-2,-2.5494037E-2,2.160803E-2,-3.6910247E-2,4.390141E-2],"categories":[],"categories_nodes":[],"categories_segments":[],"categories_sizes":[],"default_left":[0,0,0,0,0,0,0,0,0,0,0,0,0,0,0,0,0,0,0,0,0,0,0,0,0,0,0],"id":28,"left_children":[1,3,5,7,-1,-1,9,11,13,-1,15,17,19,-1,-1,-1,-1,21,23,25,-1,-1,-1,-1,-1,-1,-1],"loss_changes":[7.948032E0,4.0966697E0,1.0223379E0,2.2920372E0,0E0,0E0,1.4765295E0,2.3029048E0,4.471624E-1,0E0,4.7887933E-1,1.1379123E0,1.422942E0,0E0,0E0,0E0,0E0,1.2075853E-1,2.2881754E-1,1.2490227E0,0E0,0E0,0E0,0E0,0E0,0E0,0E0],"parents":[2147483647,0,0,1,1,2,2,3,3,6,6,7,7,8,8,10,10,11,11,12,12,17,17,18,18,19,19],"right_children":[2,4,6,8,-1,-1,10,12,14,-1,16,18,20,-1,-1,-1,-1,22,24,26,-1,-1,-1,-1,-1,-1,-1],"split_conditions":[3.357492E-2,1.9610669E-1,1.54E2,6.0696745E-1,-9.179672E-2,8.334695E-2,1.7E2,9.8E1,1.69E2,-3.901879E-2,8.044119E1,5.0257325E-1,3.5936713E-1,-9.425789E-2,-9.480144E-3,7.6298766E-2,2.6996183E-4,-4.091401E-2,7.825418E1,6.9135495E-2,6.456592E-2,2.2705317E-2,9.656872E-2,-2.5494037E-2,2.160803E-2,-3.6910247E-2,4.390141E-2],"split_indices":[1,10,18,4,0,0,18,18,18,0,8,15,4,0,0,0,0,1,7,10,0,0,0,0,0,0,0],"split_type":[0,0,0,0,0,0,0,0,0,0,0,0,0,0,0,0,0,0,0,0,0,0,0,0,0,0,0],"sum_hessian":[4.2240707E1,2.8998295E1,1.32424135E1,2.2510426E1,6.487869E0,8.215055E0,5.027358E0,1.940073E1,3.1096954E0,1.777035E0,3.250323E0,5.689907E0,1.3710822E1,2.0175304E0,1.092165E0,2.1115384E0,1.1387846E0,3.5540545E0,2.1358526E0,1.2662324E1,1.0484985E0,1.0525492E0,2.5015054E0,1.0799106E0,1.0559419E0,1.1265669E1,1.3966554E0],"tree_param":{"num_deleted":"0","num_feature":"20","num_nodes":"27","size_leaf_vector":"1"}},{"base_weights":[5.686675E-3,-6.652046E-1,2.0013879E-1,-1.9594394E-3,-7.822829E-1,5.858057E-2,6.7931676E-1,-8.45869E-1,-1.771892E-2,1.6641662E-1,-2.7437672E-1,1.3573763E-1,8.666866E-2,-2.370125E-2,-9.037815E-2,5.9853334E-2,8.3809644E-2,-4.545192E-1,3.9221693E-2,5.867336E-2,-4.1807186E-2,2.749181E-1,-1.776582E-1,-7.9457945E-4,-6.684075E-1,-1.5470751E-2,5.1154014E-2,4.43807E-2,-3.948579E-2,-6.1374023E-3,-8.790334E-2],"categories":[],"categories_nodes":[],"categories_segments":[],"categories_sizes":[],"default_left":[0,0,0,0,0,0,0,0,0,0,0,0,0,0,0,0,0,0,0,0,0,0,0,0,0,0,0,0,0,0,0],"id":29,"left_children":[1,3,5,-1,7,9,11,13,-1,15,17,19,-1,-1,-1,21,-1,23,-1,-1,-1,25,27,-1,29,-1,-1,-1,-1,-1,-1],"loss_changes":[5.851973E0,7.4673843E-1,2.3177087E0,0E0,1.7749596E-1,1.0482565E0,6.80001E-1,4.793787E-2,0E0,1.5041116E0,1.0439186E0,1.042853E0,0E0,0E0,0E0,1.0611742E0,0E0,5.810057E-1,0E0,0E0,0E0,1.1763678E0,1.5284617E0,0E0,4.7517896E-1,0E0,0E0,0E0,0E0,0E0,0E0],"parents":[2147483647,0,0,1,1,2,2,4,4,5,5,6,6,7,7,9,9,10,10,11,11,15,15,17,17,21,21,22,22,24,24],"right_children":[2,4,6,-1,8,10,12,14,-1,16,18,20,-1,-1,-1,22,-1,24,-1,-1,-1,26,28,-1,30,-1,-1,-1,-1,-1,-1],"split_conditions":[-5.4986324E-2,1.81E2,6.911317E-2,-1.9594394E-3,-6.368575E-2,1.7E2,3E0,9E1,-1.771892E-2,1.53E2,6.831161E-1,7.7896484E1,8.666866E-2,-2.370125E-2,-9.037815E-2,9.8E1,8.3809644E-2,5.324951E4,3.9221693E-2,5.867336E-2,-4.1807186E-2,2.01E2,1.77E2,-7.9457945E-4,7.948885E1,-1.5470751E-2,5.1154014E-2,4.43807E-2,-3.948579E-2,-6.1374023E-3,-8.790334E-2],"split_indices":[1,17,1,0,1,19,0,18,0,19,4,8,0,0,0,18,0,14,0,0,0,17,17,0,7,0,0,0,0,0,0],"split_type":[0,0,0,0,0,0,0,0,0,0,0,0,0,0,0,0,0,0,0,0,0,0,0,0,0,0,0,0,0,0,0],"sum_hessian":[4.2837234E1,9.081989E0,3.3755245E1,1.5733509E0,7.508638E0,2.6923723E1,6.831524E0,6.434551E0,1.074087E0,2.0714901E1,6.2088213E0,2.1932156E0,4.6383085E0,1.0011951E0,5.433356E0,1.8818432E1,1.8964697E0,5.13836E0,1.0704612E0,1.1760482E0,1.0171674E0,9.79324E0,9.025192E0,1.999918E0,3.138442E0,3.6010797E0,6.1921597E0,2.0671687E0,6.9580235E0,1.1411074E0,1.9973347E0],"tree_param":{"num_deleted":"0","num_feature":"20","num_nodes":"31","size_leaf_vector":"1"}},{"base_weights":[-6.015756E-2,7.220299E-1,-2.5301462E-1,8.31683E-1,-5.7950537E-3,-1.3381892E-1,-8.607705E-2,9.281771E-2,2.6226152E-2,4.7255225E-2,-4.3404415E-1,-2.5107545E-1,4.6761423E-1,1.1642613E-1,-7.021069E-1,2.1906536E-2,-1.1451943E-1,-2.9055543E-2,6.315182E-1,-5.3811587E-2,7.3161654E-2,4.46314E-3,-8.4580535E-1,-1.7913783E-2,7.7098124E-2,-3.0086705E-2,2.4213789E-2,7.417212E-2,3.573905E-3,-1.079577E-1,-1.9711478E-2],"categories":[],"categories_nodes":[],"categories_segments":[],"categories_sizes":[],"default_left":[0,0,0,0,0,0,0,0,0,0,0,0,0,0,0,0,0,0,0,0,0,0,0,0,0,0,0,0,0,0,0],"id":30,"left_children":[1,3,5,7,-1,9,-1,-1,-1,11,13,15,17,19,21,23,-1,25,27,-1,-1,-1,29,-1,-1,-1,-1,-1,-1,-1,-1],"loss_changes":[6.710482E0,8.024311E-1,2.4532163E0,1.8497849E-1,0E0,1.6962717E0,0E0,0E0,0E0,2.6418402E0,1.8075068E0,3.0576787E0,7.270241E-1,2.2813497E0,8.9698553E-1,1.7193522E0,0E0,3.0254525E-1,4.061284E-1,0E0,0E0,0E0,8.131275E-1,0E0,0E0,0E0,0E0,0E0,0E0,0E0,0E0],"parents":[2147483647,0,0,1,1,2,2,3,3,5,5,9,9,10,10,11,11,12,12,13,13,14,14,15,15,17,17,18,18,22,22],"right_children":[2,4,6,8,-1,10,-1,-1,-1,12,14,16,18,20,22,24,-1,26,28,-1,-1,-1,30,-1,-1,-1,-1,-1,-1,-1,-1],"split_conditions":[-1.1261718E-1,3.5E1,6.577181E-1,8.874321E-1,-5.7950537E-3,4.180953E3,-8.607705E-2,9.281771E-2,2.6226152E-2,2.5288643E3,5.0309242E4,2.1660447E3,7E0,-2.06124E-2,7.714891E1,4.1E2,-1.1451943E-1,1.54E2,1.85E2,-5.3811587E-2,7.3161654E-2,4.46314E-3,8.313699E1,-1.7913783E-2,7.7098124E-2,-3.0086705E-2,2.4213789E-2,7.417212E-2,3.573905E-3,-1.079577E-1,-1.9711478E-2],"split_indices":[10,6,11,4,0,9,0,0,0,9,13,9,6,1,7,16,0,18,18,0,0,0,7,0,0,0,0,0,0,0,0],"split_type":[0,0,0,0,0,0,0,0,0,0,0,0,0,0,0,0,0,0,0,0,0,0,0,0,0,0,0,0,0,0,0],"sum_hessian":[4.2273327E1,7.818654E0,3.4454674E1,6.7968383E0,1.0218159E0,2.9825377E1,4.629296E0,5.2732067E0,1.5236318E0,1.913009E1,1.0695286E1,1.1424665E1,7.7054243E0,3.6878712E0,7.0074153E0,9.499797E0,1.9248686E0,2.116036E0,5.5893884E0,1.8474896E0,1.8403815E0,1.2421116E0,5.7653036E0,8.089507E0,1.4102906E0,1.0021665E0,1.1138693E0,4.5101695E0,1.0792191E0,3.7497487E0,2.015555E0],"tree_param":{"num_deleted":"0","num_feature":"20","num_nodes":"31","size_leaf_vector":"1"}},{"base_weights":[1.3958237E-2,-1.2177336E-1,7.539617E-1,-8.315771E-2,-2.1237807E-2,8.687161E-2,7.4471617E-3,1.3953303E-1,-3.420333E-1,-7.957139E-2,2.424088E-1,1.5268397E-1,-5.8065015E-1,1.18697025E-1,8.5226916E-2,-5.5781543E-2,7.800727E-2,-8.261295E-1,1.3322388E-2,-3.155085E-2,4.2104658E-2,-1.0938559E-1,-6.440747E-3],"categories":[],"categories_nodes":[],"categories_segments":[],"categories_sizes":[],"default_left":[0,0,0,0,0,0,0,0,0,0,0,0,0,0,0,0,0,0,0,0,0,0,0],"id":31,"left_children":[1,3,5,-1,7,-1,-1,9,11,-1,13,15,17,19,-1,-1,-1,21,-1,-1,-1,-1,-1],"loss_changes":[4.3483768E0,2.5992043E0,4.5830798E-1,0E0,1.7572992E0,0E0,0E0,2.3857598E0,1.4292171E0,0E0,1.5058155E0,2.4352171E0,1.4890645E0,2.610034E0,0E0,0E0,0E0,1.152019E0,0E0,0E0,0E0,0E0,0E0],"parents":[2147483647,0,0,1,1,2,2,4,4,7,7,8,8,10,10,11,11,12,12,13,13,17,17],"right_children":[2,4,6,-1,8,-1,-1,10,12,-1,14,16,18,20,-1,-1,-1,22,-1,-1,-1,-1,-1],"split_conditions":[6.911317E-2,-1.1712822E-1,2.452833E-1,-8.315771E-2,8.135046E1,8.687161E-2,7.4471617E-3,1.55E2,4.5234766E3,-7.957139E-2,4.12E2,1.2E1,1.04935555E5,6.669532E2,8.5226916E-2,-5.5781543E-2,7.800727E-2,2.02E2,1.3322388E-2,-3.155085E-2,4.2104658E-2,-1.0938559E-1,-6.440747E-3],"split_indices":[1,1,1,0,8,0,0,17,9,0,16,5,14,3,0,0,0,19,0,0,0,0,0],"split_type":[0,0,0,0,0,0,0,0,0,0,0,0,0,0,0,0,0,0,0,0,0,0,0],"sum_hessian":[4.13784E1,3.567105E1,5.7073503E0,3.523422E0,3.214763E1,4.644491E0,1.0628587E0,2.179155E1,1.0356078E1,1.4921016E0,2.0299448E1,3.486907E0,6.8691716E0,1.7869253E1,2.4301953E0,1.6871511E0,1.7997559E0,4.9944763E0,1.874695E0,7.31731E0,1.0551943E1,3.372941E0,1.6215353E0],"tree_param":{"num_deleted":"0","num_feature":"20","num_nodes":"23","size_leaf_vector":"1"}},{"base_weights":[5.0673746E-2,-5.914745E-1,1.8515685E-1,7.63117E-3,-7.6199675E-1,6.745977E-1,6.982303E-2,-2.0168371E-2,-8.371062E-2,8.488276E-2,4.202602E-3,2.5504756E-1,-1.4221172E-1,-2.742982E-1,3.8118547E-1,-4.08411E-1,3.4846815E-1,-6.038558E-2,1.9807946E-2,7.268351E-1,6.2645085E-2,-5.407902E-2,-8.0258954E-1,6.2917227E-1,-3.3649962E-2,8.932126E-2,-3.5670025E-3,-2.7504325E-2,5.89341E-2,-4.2829506E-2,3.2287817E-2,-9.437557E-2,-1.870793E-2,8.810393E-3,8.116482E-2],"categories":[],"categories_nodes":[],"categories_segments":[],"categories_sizes":[],"default_left":[0,0,0,0,0,0,0,0,0,0,0,0,0,0,0,0,0,0,0,0,0,0,0,0,0,0,0,0,0,0,0,0,0,0,0],"id":32,"left_children":[1,3,5,-1,7,9,11,-1,-1,-1,-1,13,15,17,19,21,23,-1,-1,25,27,29,31,33,-1,-1,-1,-1,-1,-1,-1,-1,-1,-1,-1],"loss_changes":[3.5612192E0,8.73435E-1,1.8614421E0,0E0,7.5021744E-2,6.6222906E-1,1.1547058E0,0E0,0E0,0E0,0E0,1.1433614E0,1.9605197E0,6.762135E-1,1.3838732E0,1.2813114E0,1.256784E0,0E0,0E0,8.0978155E-1,1.5583694E0,9.941192E-1,2.0728469E-1,3.4354317E-1,0E0,0E0,0E0,0E0,0E0,0E0,0E0,0E0,0E0,0E0,0E0],"parents":[2147483647,0,0,1,1,2,2,4,4,5,5,6,6,11,11,12,12,13,13,14,14,15,15,16,16,19,19,20,20,21,21,22,22,23,23],"right_children":[2,4,6,-1,8,10,12,-1,-1,-1,-1,14,16,18,20,22,24,-1,-1,26,28,30,32,34,-1,-1,-1,-1,-1,-1,-1,-1,-1,-1,-1],"split_conditions":[-6.502428E-2,1.81E2,2.2524624E-1,7.63117E-3,4.8960185E-1,5E0,4.9791926E-1,-2.0168371E-2,-8.371062E-2,8.488276E-2,4.202602E-3,1.83E2,1.7E2,7.625044E1,2.62E2,1.1E2,2.01E2,-6.038558E-2,1.9807946E-2,5.324951E4,3.1752693E3,1.2961132E3,8.654549E4,8E0,-3.3649962E-2,8.932126E-2,-3.5670025E-3,-2.7504325E-2,5.89341E-2,-4.2829506E-2,3.2287817E-2,-9.437557E-2,-1.870793E-2,8.810393E-3,8.116482E-2],"split_indices":[1,17,12,0,15,0,15,0,0,0,0,17,18,8,17,18,19,0,0,14,2,2,14,5,0,0,0,0,0,0,0,0,0,0,0],"split_type":[0,0,0,0,0,0,0,0,0,0,0,0,0,0,0,0,0,0,0,0,0,0,0,0,0,0,0,0,0,0,0,0,0,0,0],"sum_hessian":[3.8969666E1,6.1596413E0,3.2810024E1,1.3653288E0,4.7943125E0,5.332303E0,2.747772E1,1.0023117E0,3.7920005E0,3.9127433E0,1.4195595E0,1.4557795E1,1.2919926E1,2.5753958E0,1.1982399E1,8.4846E0,4.435326E0,1.3530782E0,1.2223175E0,5.1319404E0,6.850458E0,5.0670023E0,3.4175973E0,3.2038326E0,1.2314936E0,4.0720143E0,1.0599264E0,4.46533E0,2.3851283E0,2.474403E0,2.5925996E0,2.3462083E0,1.071389E0,1.1819626E0,2.0218701E0],"tree_param":{"num_deleted":"0","num_feature":"20","num_nodes":"35","size_leaf_vector":"1"}},{"base_weights":[-4.9035694E-3,-8.842737E-2,5.283091E-1,7.8085355E-2,-3.5707578E-1,7.377816E-2,7.965497E-3,-2.4667384E-1,4.480435E-1,1.752307E-1,-6.236601E-1,-3.3871396E-3,-9.208424E-2,7.8343636E-1,1.498116E-1,-3.4091005E-1,7.42247E-2,-8.231325E-1,6.3943975E-2,2.3956381E-1,-3.7420276E-1,1.9435303E-2,9.322055E-2,-4.4723883E-2,4.723127E-1,1.447277E-2,-6.1664194E-2,-9.827619E-2,-1.9381068E-5,-2.3263268E-2,3.2861754E-2,1.412752E-3,7.505576E-2,-6.7989334E-2,1.560154E-2,5.9614725E-2,6.3665555E-4],"categories":[],"categories_nodes":[],"categories_segments":[],"categories_sizes":[],"default_left":[0,0,0,0,0,0,0,0,0,0,0,0,0,0,0,0,0,0,0,0,0,0,0,0,0,0,0,0,0,0,0,0,0,0,0,0,0],"id":33,"left_children":[1,3,5,7,9,-1,-1,11,13,15,17,19,-1,21,23,25,-1,27,29,31,33,-1,-1,-1,35,-1,-1,-1,-1,-1,-1,-1,-1,-1,-1,-1,-1],"loss_changes":[1.7988081E0,1.587725E0,4.5542753E-1,2.7955177E0,2.0281496E0,0E0,0E0,2.054576E0,9.630873E-1,1.8020695E0,1.318506E0,1.0105962E0,0E0,2.4366665E-1,1.5502495E0,5.520278E-1,0E0,9.4905806E-1,3.1219116E-1,7.7109563E-1,8.251986E-1,0E0,0E0,0E0,2.8479636E-1,0E0,0E0,0E0,0E0,0E0,0E0,0E0,0E0,0E0,0E0,0E0,0E0],"parents":[2147483647,0,0,1,1,2,2,3,3,4,4,7,7,8,8,9,9,10,10,11,11,13,13,14,14,15,15,17,17,18,18,19,19,20,20,24,24],"right_children":[2,4,6,8,10,-1,-1,12,14,16,18,20,-1,22,24,26,-1,28,30,32,34,-1,-1,-1,36,-1,-1,-1,-1,-1,-1,-1,-1,-1,-1,-1,-1],"split_conditions":[4.53E2,8.021849E1,4.1E2,2.4501536E3,4.4322812E3,7.377816E-2,7.965497E-3,6E0,2.12E2,1.2E1,2.01E2,4.983568E-1,-9.208424E-2,7E0,3E0,1.93E2,7.42247E-2,1.1083763E5,5.095861E-1,4.9628085E-1,5.1395607E-1,1.9435303E-2,9.322055E-2,-4.4723883E-2,8.3698836E4,1.447277E-2,-6.1664194E-2,-9.827619E-2,-1.9381068E-5,-2.3263268E-2,3.2861754E-2,1.412752E-3,7.505576E-2,-6.7989334E-2,1.560154E-2,5.9614725E-2,6.3665555E-4],"split_indices":[16,8,17,9,9,0,0,6,16,5,19,15,0,6,0,17,0,14,15,15,15,0,0,0,14,0,0,0,0,0,0,0,0,0,0,0,0],"split_type":[0,0,0,0,0,0,0,0,0,0,0,0,0,0,0,0,0,0,0,0,0,0,0,0,0,0,0,0,0,0,0,0,0,0,0,0,0],"sum_hessian":[3.8341057E1,3.386977E1,4.4712863E0,2.1347546E1,1.25222225E1,2.6088197E0,1.8624665E0,1.1545678E1,9.801868E0,4.292929E0,8.229293E0,9.222563E0,2.3231153E0,3.8477428E0,5.9541254E0,2.456031E0,1.8368983E0,6.2260323E0,2.0032606E0,5.785786E0,3.4367766E0,1.240827E0,2.606916E0,1.9525541E0,4.001571E0,1.0615215E0,1.3945094E0,5.051884E0,1.1741484E0,1.0017833E0,1.0014775E0,4.727702E0,1.058084E0,2.0008957E0,1.4358809E0,2.940611E0,1.0609604E0],"tree_param":{"num_deleted":"0","num_feature":"20","num_nodes":"37","size_leaf_vector":"1"}},{"base_weights":[1.2982241E-2,-3.6509648E-1,3.3682755E-1,-1.0164435E-1,-8.136742E-1,-1.2548378E-1,5.152768E-1,3.3461246E-1,-3.9521223E-1,-8.965106E-2,-2.0690281E-2,-5.0195056E-1,2.9381996E-1,6.0064745E-1,-1.8659195E-2,-2.2847444E-2,7.3641516E-2,-5.7440865E-1,1.00489585E-2,5.9730574E-3,-8.2318E-2,6.8500176E-2,-2.4961218E-2,7.456674E-1,-4.7887117E-2,-8.439087E-2,1.4781586E-2,2.3072582E-2,8.2359076E-2,-3.372362E-2,2.8075919E-2],"categories":[],"categories_nodes":[],"categories_segments":[],"categories_sizes":[],"default_left":[0,0,0,0,0,0,0,0,0,0,0,0,0,0,0,0,0,0,0,0,0,0,0,0,0,0,0,0,0,0,0],"id":34,"left_children":[1,3,5,7,9,11,13,15,17,-1,-1,19,21,23,-1,-1,-1,25,-1,-1,-1,-1,-1,27,29,-1,-1,-1,-1,-1,-1],"loss_changes":[4.6002917E0,1.9678195E0,1.7325177E0,1.6785574E0,1.300168E-1,1.1631835E0,9.9781346E-1,1.3895869E0,7.3954046E-1,0E0,0E0,7.27513E-1,9.5217717E-1,1.2975111E0,0E0,0E0,0E0,1.2510414E0,0E0,0E0,0E0,0E0,0E0,2.5235796E-1,4.171857E-1,0E0,0E0,0E0,0E0,0E0,0E0],"parents":[2147483647,0,0,1,1,2,2,3,3,4,4,5,5,6,6,7,7,8,8,11,11,12,12,13,13,17,17,23,23,24,24],"right_children":[2,4,6,8,10,12,14,16,18,-1,-1,20,22,24,-1,-1,-1,26,-1,-1,-1,-1,-1,28,30,-1,-1,-1,-1,-1,-1],"split_conditions":[1.4917543E-3,2.8999622E3,8.5E1,1.3592497E-2,2.06E2,6.669532E2,4.0612014E3,2.31E2,1.7588268E3,-8.965106E-2,-2.0690281E-2,2.23E2,1.3373379E3,9.412644E-1,-1.8659195E-2,-2.2847444E-2,7.3641516E-2,4.01E2,1.00489585E-2,5.9730574E-3,-8.2318E-2,6.8500176E-2,-2.4961218E-2,3.5512613E4,8.093709E1,-8.439087E-2,1.4781586E-2,2.3072582E-2,8.2359076E-2,-3.372362E-2,2.8075919E-2],"split_indices":[1,3,19,10,19,3,3,16,3,0,0,17,3,12,0,0,0,16,0,0,0,0,0,14,7,0,0,0,0,0,0],"split_type":[0,0,0,0,0,0,0,0,0,0,0,0,0,0,0,0,0,0,0,0,0,0,0,0,0,0,0,0,0,0,0],"sum_hessian":[3.5567734E1,1.6351046E1,1.9216686E1,1.1073885E1,5.2771606E0,5.4344316E0,1.3782255E1,4.398169E0,6.675716E0,4.2231116E0,1.0540489E0,2.759628E0,2.6748033E0,1.2416244E1,1.3660125E0,2.0111363E0,2.3870327E0,4.786585E0,1.889131E0,1.3002138E0,1.4594142E0,1.4037932E0,1.2710102E0,1.0024807E1,2.3914366E0,3.3631358E0,1.423449E0,1.8382194E0,8.186587E0,1.2578523E0,1.1335841E0],"tree_param":{"num_deleted":"0","num_feature":"20","num_nodes":"31","size_leaf_vector":"1"}},{"base_weights":[4.7644798E-2,5.380936E-1,-1.7535697E-1,-2.4440462E-2,6.4597654E-1,-3.6809605E-1,2.5871557E-1,1.1247963E-1,7.7590555E-1,-2.2532387E-2,-6.405025E-1,5.294958E-1,-7.8204595E-2,4.8824463E-2,-3.601786E-2,3.0891145E-2,8.650004E-2,-3.7218183E-1,7.4560925E-2,-2.3860356E-1,-8.67912E-1,1.490013E-1,8.079929E-2,3.0282516E-2,-4.2990156E-2,-6.6638035E-1,3.7797026E-2,-5.3814733E-1,3.549633E-2,-9.398661E-2,-2.5302976E-2,5.4297864E-2,-2.7495915E-2,4.8001566E-5,-8.368877E-2,-8.354703E-2,2.2620193E-3],"categories":[],"categories_nodes":[],"categories_segments":[],"categories_sizes":[],"default_left":[0,0,0,0,0,0,0,0,0,0,0,0,0,0,0,0,0,0,0,0,0,0,0,0,0,0,0,0,0,0,0,0,0,0,0,0,0],"id":35,"left_children":[1,3,5,-1,7,9,11,13,15,17,19,21,23,-1,-1,-1,-1,25,-1,27,29,31,-1,-1,-1,33,-1,35,-1,-1,-1,-1,-1,-1,-1,-1,-1],"loss_changes":[4.3198886E0,1.1980639E0,2.380317E0,0E0,6.8237305E-1,1.8049173E0,8.61193E-1,7.697922E-1,9.723568E-2,2.8440785E0,7.7735233E-1,4.211576E-1,7.8349704E-1,0E0,0E0,0E0,0E0,1.8483572E0,0E0,1.1282864E0,4.975462E-2,7.1484435E-1,0E0,0E0,0E0,6.32375E-1,0E0,6.692921E-1,0E0,0E0,0E0,0E0,0E0,0E0,0E0,0E0,0E0],"parents":[2147483647,0,0,1,1,2,2,4,4,5,5,6,6,7,7,8,8,9,9,10,10,11,11,12,12,17,17,19,19,20,20,21,21,25,25,27,27],"right_children":[2,4,6,-1,8,10,12,14,16,18,20,22,24,-1,-1,-1,-1,26,-1,28,30,32,-1,-1,-1,34,-1,36,-1,-1,-1,-1,-1,-1,-1,-1,-1],"split_conditions":[-5.519005E-2,-2.1554697E-3,9.517135E-1,-2.4440462E-2,-3.8965486E-2,7.7896484E1,-6.77402E-3,4.6077974E-2,8.1E1,6.669532E2,4.8090336E4,7.838287E1,2.57E2,4.8824463E-2,-3.601786E-2,3.0891145E-2,8.650004E-2,4.01E2,7.4560925E-2,1.64E2,9.220015E-1,-2.6653573E-2,8.079929E-2,3.0282516E-2,-4.2990156E-2,-3.8635243E-2,3.7797026E-2,8.0618744E1,3.549633E-2,-9.398661E-2,-2.5302976E-2,5.4297864E-2,-2.7495915E-2,4.8001566E-5,-8.368877E-2,-8.354703E-2,2.2620193E-3],"split_indices":[10,1,12,0,4,8,10,1,19,3,13,7,16,0,0,0,0,16,0,19,12,1,0,0,0,10,0,8,0,0,0,0,0,0,0,0,0],"split_type":[0,0,0,0,0,0,0,0,0,0,0,0,0,0,0,0,0,0,0,0,0,0,0,0,0,0,0,0,0,0,0,0,0,0,0,0,0],"sum_hessian":[3.7634853E1,1.1321803E1,2.631305E1,1.2184752E0,1.0103328E1,1.8327274E1,7.985775E0,2.3440814E0,7.7592463E0,8.556087E0,9.771187E0,4.110567E0,3.8752081E0,1.2875212E0,1.05656E0,1.9588864E0,5.80036E0,6.2339435E0,2.3221438E0,4.271473E0,5.4997144E0,2.385887E0,1.7246801E0,1.9267358E0,1.9484725E0,4.5580263E0,1.675917E0,2.9008996E0,1.370573E0,4.4503946E0,1.0493197E0,1.091163E0,1.2947239E0,1.1311691E0,3.4268572E0,1.5756233E0,1.3252764E0],"tree_param":{"num_deleted":"0","num_feature":"20","num_nodes":"37","size_leaf_vector":"1"}},{"base_weights":[5.7125114E-2,7.87838E-2,-4.959556E-2,-6.149782E-1,9.191177E-2,-7.787788E-1,8.0410605E-3,-2.0726348E-1,2.4606766E-1,-9.103771E-2,-9.982951E-3,1.2457123E-1,-1.0645826E-1,3.7950525E-1,-4.284408E-1,5.4586774E-1,-2.3472925E-1,-3.7266243E-2,5.381821E-1,-6.350305E-2,-8.539029E-3,8.125048E-2,2.3842414E-3,-5.8794267E-2,2.260842E-2,-5.6646407E-2,5.2018125E-2,2.359472E-2,7.89113E-2],"categories":[],"categories_nodes":[],"categories_segments":[],"categories_sizes":[],"default_left":[0,0,0,0,0,0,0,0,0,0,0,0,0,0,0,0,0,0,0,0,0,0,0,0,0,0,0,0,0],"id":36,"left_children":[1,-1,3,5,7,9,-1,11,13,-1,-1,15,-1,17,19,21,23,25,27,-1,-1,-1,-1,-1,-1,-1,-1,-1,-1],"loss_changes":[2.953685E0,0E0,2.7409663E0,8.4250593E-1,1.3288059E0,4.126022E-1,0E0,2.9673626E0,1.8494608E0,0E0,0E0,1.351073E0,0E0,1.0898652E0,1.9843376E-1,5.4009414E-1,9.5645976E-1,1.8864627E0,7.072787E-1,0E0,0E0,0E0,0E0,0E0,0E0,0E0,0E0,0E0,0E0],"parents":[2147483647,0,0,2,2,3,3,4,4,5,5,7,7,8,8,11,11,13,13,14,14,15,15,16,16,17,17,18,18],"right_children":[2,-1,4,6,8,10,-1,12,14,-1,-1,16,-1,18,20,22,24,26,28,-1,-1,-1,-1,-1,-1,-1,-1,-1,-1],"split_conditions":[-3.5744148E-1,7.87838E-2,7.0522267E-1,1.48E2,2.5288643E3,1.01688016E5,8.0410605E-3,2.1660447E3,9.771543E3,-9.103771E-2,-9.982951E-3,4.9447435E-1,-1.0645826E-1,-3.9398592E-2,6.782422E4,1.15E2,1.12E2,4.343531E-2,3E0,-6.350305E-2,-8.539029E-3,8.125048E-2,2.3842414E-3,-5.8794267E-2,2.260842E-2,-5.6646407E-2,5.2018125E-2,2.359472E-2,7.89113E-2],"split_indices":[10,0,12,18,9,13,0,9,9,0,0,15,0,1,13,19,18,10,0,0,0,0,0,0,0,0,0,0,0],"split_type":[0,0,0,0,0,0,0,0,0,0,0,0,0,0,0,0,0,0,0,0,0,0,0,0,0,0,0,0,0],"sum_hessian":[3.6375362E1,3.8222566E0,3.2553104E1,5.846783E0,2.6706322E1,4.635063E0,1.2117199E0,8.964373E0,1.7741951E1,3.5970068E0,1.0380566E0,7.0790467E0,1.8853257E0,1.5176878E1,2.565072E0,3.0194037E0,4.059643E0,4.3959284E0,1.078095E1,1.0697348E0,1.4953372E0,1.6302612E0,1.3891424E0,2.141955E0,1.917688E0,2.2468073E0,2.149121E0,5.7706957E0,5.0102544E0],"tree_param":{"num_deleted":"0","num_feature":"20","num_nodes":"29","size_leaf_vector":"1"}},{"base_weights":[-5.5145524E-3,-1.3557279E-1,6.9139975E-1,-3.0656168E-2,-6.4396495E-1,6.022589E-3,8.178482E-2,1.1540693E-1,-2.5668448E-1,-5.64992E-3,-7.823172E-2,-2.328675E-1,4.674562E-1,1.9353414E-1,-7.4997777E-1,3.4474856E-1,-5.3374755E-1,-3.7031963E-2,6.34018E-1,7.074133E-2,-1.3722166E-1,-1.4552181E-2,-8.6686686E-2,7.61382E-2,-2.3390846E-2,6.487913E-3,-6.666505E-2,2.845332E-2,8.141747E-2,-5.4291528E-2,2.6405027E-2],"categories":[],"categories_nodes":[],"categories_segments":[],"categories_sizes":[],"default_left":[0,0,0,0,0,0,0,0,0,0,0,0,0,0,0,0,0,0,0,0,0,0,0,0,0,0,0,0,0,0,0],"id":37,"left_children":[1,3,5,7,9,-1,-1,11,13,-1,-1,15,17,19,21,23,25,-1,27,-1,29,-1,-1,-1,-1,-1,-1,-1,-1,-1,-1],"loss_changes":[3.2295587E0,1.5799801E0,3.9808273E-1,8.85063E-1,3.6873627E-1,0E0,0E0,2.12329E0,2.472974E0,0E0,0E0,1.7353886E0,1.4213184E0,1.1636031E0,2.4171996E-1,1.0616509E0,5.4142904E-1,0E0,2.3813868E-1,0E0,9.01192E-1,0E0,0E0,0E0,0E0,0E0,0E0,0E0,0E0,0E0,0E0],"parents":[2147483647,0,0,1,1,2,2,3,3,4,4,7,7,8,8,11,11,12,12,13,13,14,14,15,15,16,16,18,18,20,20],"right_children":[2,4,6,8,10,-1,-1,12,14,-1,-1,16,18,20,22,24,26,-1,28,-1,30,-1,-1,-1,-1,-1,-1,-1,-1,-1,-1],"split_conditions":[6.911317E-2,1.9610669E-1,1.04E2,1.9798384E3,6.87493E4,6.022589E-3,8.178482E-2,2.5054595E3,5.5814242E4,-5.64992E-3,-7.823172E-2,-3.2478906E-2,4.269934E2,7.5E1,8.031154E1,8.567171E-3,5.3E1,-3.7031963E-2,3.5827688E3,7.074133E-2,4.4950574E4,-1.4552181E-2,-8.6686686E-2,7.61382E-2,-2.3390846E-2,6.487913E-3,-6.666505E-2,2.845332E-2,8.141747E-2,-5.4291528E-2,2.6405027E-2],"split_indices":[1,10,18,3,14,0,0,9,14,0,0,1,3,18,8,10,18,0,9,0,13,0,0,0,0,0,0,0,0,0,0],"split_type":[0,0,0,0,0,0,0,0,0,0,0,0,0,0,0,0,0,0,0,0,0,0,0,0,0,0,0,0,0,0,0],"sum_hessian":[3.359668E1,2.8991709E1,4.60497E0,2.4911116E1,4.080594E0,1.0149724E0,3.5899973E0,1.5429646E1,9.481469E0,1.046283E0,3.0343108E0,7.926588E0,7.503058E0,5.274872E0,4.2065973E0,2.6648765E0,5.261711E0,1.0414476E0,6.4616103E0,1.6196783E0,3.6551936E0,1.0454303E0,3.1611671E0,1.3657568E0,1.2991198E0,1.048927E0,4.2127843E0,3.0752738E0,3.3863368E0,1.6420567E0,2.0131369E0],"tree_param":{"num_deleted":"0","num_feature":"20","num_nodes":"31","size_leaf_vector":"1"}},{"base_weights":[3.0724886E-3,8.005123E-2,-1.0115881E-1,-8.808992E-3,-7.644426E-2,-1.241838E-1,3.1995538E-1,1.3466409E-1,-5.1376563E-1,-6.8136454E-3,6.896872E-1,3.0229943E-2,7.010158E-2,-1.7778741E-1,-8.326795E-2,3.7914738E-1,-4.0549584E-2,6.2942146E-3,9.1309E-2,1.8177664E-2,-7.963585E-2,-6.7322664E-2,4.1558024E-2,8.1107296E-2,-2.194946E-2],"categories":[],"categories_nodes":[],"categories_segments":[],"categories_sizes":[],"default_left":[0,0,0,0,0,0,0,0,0,0,0,0,0,0,0,0,0,0,0,0,0,0,0,0,0],"id":38,"left_children":[1,-1,3,5,-1,7,9,11,13,15,17,19,-1,21,-1,23,-1,-1,-1,-1,-1,-1,-1,-1,-1],"loss_changes":[2.9819088E0,0E0,1.9383647E0,1.1353866E0,0E0,2.298019E0,9.450415E-1,8.110857E-1,8.195796E-1,9.418737E-1,4.5517576E-1,1.763927E0,0E0,1.9463847E0,0E0,9.845648E-1,0E0,0E0,0E0,0E0,0E0,0E0,0E0,0E0,0E0],"parents":[2147483647,0,0,2,2,3,3,5,5,6,6,7,7,8,8,9,9,10,10,11,11,13,13,15,15],"right_children":[2,-1,4,6,-1,8,10,12,14,16,18,20,-1,22,-1,24,-1,-1,-1,-1,-1,-1,-1,-1,-1],"split_conditions":[-5.6320626E-1,8.005123E-2,6.577181E-1,5.097015E-1,-7.644426E-2,4.9726653E-1,8E0,4.9628085E-1,4.6969418E4,7.4166664E1,7.7976326E1,4.9538442E-1,7.010158E-2,1.1587147E3,-8.326795E-2,1.075015E5,-4.0549584E-2,6.2942146E-3,9.1309E-2,1.8177664E-2,-7.963585E-2,-6.7322664E-2,4.1558024E-2,8.1107296E-2,-2.194946E-2],"split_indices":[10,0,11,15,0,15,5,15,13,7,7,15,0,2,0,13,0,0,0,0,0,0,0,0,0],"split_type":[0,0,0,0,0,0,0,0,0,0,0,0,0,0,0,0,0,0,0,0,0,0,0,0,0],"sum_hessian":[3.3901268E1,3.1467044E0,3.0754564E1,2.7885336E1,2.8692286E0,2.1102137E1,6.7831993E0,1.30714655E1,8.030671E0,4.1218653E0,2.6613338E0,1.19257555E1,1.1457095E0,4.6691566E0,3.3615143E0,2.1192422E0,2.0026233E0,1.0361662E0,1.6251676E0,1.0737273E1,1.1884831E0,2.4712071E0,2.1979494E0,1.0249076E0,1.0943346E0],"tree_param":{"num_deleted":"0","num_feature":"20","num_nodes":"25","size_leaf_vector":"1"}},{"base_weights":[5.0270405E-2,-5.8219945E-1,1.7734328E-1,9.875516E-3,-8.101464E-2,5.219964E-1,-6.0058594E-2,6.361005E-1,-3.1332564E-2,-2.4784522E-1,4.186207E-1,-1.819459E-2,7.492035E-1,-4.2555988E-1,3.5885975E-1,6.8917423E-1,-1.4553535E-2,1.4431141E-1,9.492614E-2,-6.707386E-1,1.0437959E-1,-1.7213185E-3,5.9045006E-2,1.0116248E-2,8.695366E-2,4.9915116E-2,-2.2425022E-2,-3.3846598E-2,-9.072118E-2,4.585209E-2,-4.0113065E-2],"categories":[],"categories_nodes":[],"categories_segments":[],"categories_sizes":[],"default_left":[0,0,0,0,0,0,0,0,0,0,0,0,0,0,0,0,0,0,0,0,0,0,0,0,0,0,0,0,0,0,0],"id":39,"left_children":[1,3,5,-1,-1,7,9,11,-1,13,15,-1,17,19,21,23,-1,25,-1,27,29,-1,-1,-1,-1,-1,-1,-1,-1,-1,-1],"loss_changes":[2.7086782E0,9.581071E-1,2.3027868E0,0E0,0E0,1.2883601E0,1.6619841E0,1.0969687E0,0E0,1.5628657E0,9.02585E-1,0E0,9.904995E-1,1.4437757E0,3.154802E-1,3.0729318E-1,0E0,5.689975E-1,0E0,2.715075E-1,9.375624E-1,0E0,0E0,0E0,0E0,0E0,0E0,0E0,0E0,0E0,0E0],"parents":[2147483647,0,0,1,1,2,2,5,5,6,6,7,7,9,9,10,10,12,12,13,13,14,14,15,15,17,17,19,19,20,20],"right_children":[2,4,6,-1,-1,8,10,12,-1,14,16,-1,18,20,22,24,-1,26,-1,28,30,-1,-1,-1,-1,-1,-1,-1,-1,-1,-1],"split_conditions":[-6.502428E-2,2.08E2,6E0,9.875516E-3,-8.101464E-2,4.58E2,5.097015E-1,1.83E2,-3.1332564E-2,9.592484E-1,2.98E2,-1.819459E-2,4.8241845E-1,3.1752693E3,-3.5704095E-3,2.2E1,-1.4553535E-2,1.02E2,9.492614E-2,9.0853524E-1,2.528756E3,-1.7213185E-3,5.9045006E-2,1.0116248E-2,8.695366E-2,4.9915116E-2,-2.2425022E-2,-3.3846598E-2,-9.072118E-2,4.585209E-2,-4.0113065E-2],"split_indices":[1,16,6,0,0,17,15,17,0,12,16,0,15,2,1,6,0,18,0,12,3,0,0,0,0,0,0,0,0,0,0],"split_type":[0,0,0,0,0,0,0,0,0,0,0,0,0,0,0,0,0,0,0,0,0,0,0,0,0,0,0,0,0,0,0],"sum_hessian":[3.1418026E1,4.6570816E0,2.6760944E1,1.3101083E0,3.3469732E0,1.0425998E1,1.6334948E1,9.3828125E0,1.0431855E0,1.207869E1,4.256257E0,1.0657597E0,8.317053E0,9.573123E0,2.5055661E0,2.7269065E0,1.5293508E0,2.4948895E0,5.822163E0,6.363387E0,3.2097363E0,1.3077011E0,1.197865E0,1.0064838E0,1.7204227E0,1.0905855E0,1.4043039E0,3.6566591E0,2.706728E0,1.9421171E0,1.2676193E0],